the 0.418 0.24968 -0.41242 0.1217 0.34527 -0.044457 -0.49688 -0.17862 -0.00066023 -0.6566 0.27843 -0.14767 -0.55677 0.14658 -0.0095095 0.011658 0.10204 -0.12792 -0.8443 -0.12181 -0.016801 -0.33279 -0.1552 -0.23131 -0.19181 -1.8823 -0.76746 0.099051 -0.42125 -0.19526 4.0071 -0.18594 -0.52287 -0.31681 0.00059213 0.0074449 0.17778 -0.15897 0.012041 -0.054223 -0.29871 -0.15749 -0.34758 -0.045637 -0.44251 0.18785 0.0027849 -0.18411 -0.11514 -0.78581
of 0.70853 0.57088 -0.4716 0.18048 0.54449 0.72603 0.18157 -0.52393 0.10381 -0.17566 0.078852 -0.36216 -0.11829 -0.83336 0.11917 -0.16605 0.061555 -0.012719 -0.56623 0.013616 0.22851 -0.14396 -0.067549 -0.38157 -0.23698 -1.7037 -0.86692 -0.26704 -0.2589 0.1767 3.8676 -0.1613 -0.13273 -0.68881 0.18444 0.0052464 -0.33874 -0.078956 0.24185 0.36576 -0.34727 0.28483 0.075693 -0.062178 -0.38988 0.22902 -0.21617 -0.22562 -0.093918 -0.80375
to 0.68047 -0.039263 0.30186 -0.17792 0.42962 0.032246 -0.41376 0.13228 -0.29847 -0.085253 0.17118 0.22419 -0.10046 -0.43653 0.33418 0.67846 0.057204 -0.34448 -0.42785 -0.43275 0.55963 0.10032 0.18677 -0.26854 0.037334 -2.0932 0.22171 -0.39868 0.20912 -0.55725 3.8826 0.47466 -0.95658 -0.37788 0.20869 -0.32752 0.12751 0.088359 0.16351 -0.21634 -0.094375 0.018324 0.21048 -0.03088 -0.19722 0.082279 -0.09434 -0.073297 -0.064699 -0.26044
and 0.26818 0.14346 -0.27877 0.016257 0.11384 0.69923 -0.51332 -0.47368 -0.33075 -0.13834 0.2702 0.30938 -0.45012 -0.4127 -0.09932 0.038085 0.029749 0.10076 -0.25058 -0.51818 0.34558 0.44922 0.48791 -0.080866 -0.10121 -1.3777 -0.10866 -0.23201 0.012839 -0.46508 3.8463 0.31362 0.13643 -0.52244 0.3302 0.33707 -0.35601 0.32431 0.12041 0.3512 -0.069043 0.36885 0.25168 -0.24517 0.25381 0.1367 -0.31178 -0.6321 -0.25028 -0.38097
in 0.33042 0.24995 -0.60874 0.10923 0.036372 0.151 -0.55083 -0.074239 -0.092307 -0.32821 0.09598 -0.82269 -0.36717 -0.67009 0.42909 0.016496 -0.23573 0.12864 -1.0953 0.43334 0.57067 -0.1036 0.20422 0.078308 -0.42795 -1.7984 -0.27865 0.11954 -0.12689 0.031744 3.8631 -0.17786 -0.082434 -0.62698 0.26497 -0.057185 -0.073521 0.46103 0.30862 0.12498 -0.48609 -0.0080272 0.031184 -0.36576 -0.42699 0.42164 -0.11666 -0.50703 -0.027273 -0.53285
a 0.21705 0.46515 -0.46757 0.10082 1.0135 0.74845 -0.53104 -0.26256 0.16812 0.13182 -0.24909 -0.44185 -0.21739 0.51004 0.13448 -0.43141 -0.03123 0.20674 -0.78138 -0.20148 -0.097401 0.16088 -0.61836 -0.18504 -0.12461 -2.2526 -0.22321 0.5043 0.32257 0.15313 3.9636 -0.71365 -0.67012 0.28388 0.21738 0.14433 0.25926 0.23434 0.4274 -0.44451 0.13813 0.36973 -0.64289 0.024142 -0.039315 -0.26037 0.12017 -0.043782 0.41013 0.1796
" 0.25769 0.45629 -0.76974 -0.37679 0.59272 -0.063527 0.20545 -0.57385 -0.29009 -0.13662 0.32728 1.4719 -0.73681 -0.12036 0.71354 -0.46098 0.65248 0.48887 -0.51558 0.039951 -0.34307 -0.014087 0.86488 0.3546 0.7999 -1.4995 -1.8153 0.41128 0.23921 -0.43139 3.6623 -0.79834 -0.54538 0.16943 -0.82017 -0.3461 0.69495 -1.2256 -0.17992 -0.057474 0.030498 -0.39543 -0.38515 -1.0002 0.087599 -0.31009 -0.34677 -0.31438 0.75004 0.97065
for 0.15272 0.36181 -0.22168 0.066051 0.13029 0.37075 -0.75874 -0.44722 0.22563 0.10208 0.054225 0.13494 -0.43052 -0.2134 0.56139 -0.21445 0.077974 0.10137 -0.51306 -0.40295 0.40639 0.23309 0.20696 -0.12668 -0.50634 -1.7131 0.077183 -0.39138 -0.10594 -0.23743 3.9552 0.66596 -0.61841 -0.3268 0.37021 0.25764 0.38977 0.27121 0.043024 -0.34322 0.020339 0.2142 0.044097 0.14003 -0.20079 0.074794 -0.36076 0.43382 -0.084617 0.1214
that 0.88387 -0.14199 0.13566 0.098682 0.51218 0.49138 -0.47155 -0.30742 0.01963 0.12686 0.073524 0.35836 -0.60874 -0.18676 0.78935 0.54534 0.1106 -0.2923 0.059041 -0.69551 -0.18804 0.19455 0.32269 -0.49981 0.306 -2.3902 -0.60749 0.37107 0.078912 -0.23896 3.839 -0.20355 -0.35613 -0.69185 -0.17497 -0.35323 0.10598 -0.039303 0.015701 0.038279 -0.35283 0.44882 -0.16534 0.31579 0.14963 -0.071277 -0.53506 0.52711 -0.20148 0.0095952
on 0.30045 0.25006 -0.16692 0.1923 0.026921 -0.079486 -0.91383 -0.1974 -0.053413 -0.40846 -0.26844 -0.28212 -0.5 0.1221 0.3903 0.17797 -0.4429 -0.40478 -0.9505 -0.16897 0.77793 0.33525 0.3346 -0.1754 -0.12017 -1.7861 0.29241 0.55933 0.029982 -0.32417 3.9297 0.1088 -0.57335 -0.17842 0.0041748 -0.16309 0.45077 -0.16123 -0.17311 -0.087889 -0.089032 0.062001 -0.19946 -0.38863 -0.18232 0.060751 0.098603 -0.07131 0.23052 -0.51939
is 0.6185 0.64254 -0.46552 0.3757 0.74838 0.53739 0.0022239 -0.60577 0.26408 0.11703 0.43722 0.20092 -0.057859 -0.34589 0.21664 0.58573 0.53919 0.6949 -0.15618 0.05583 -0.60515 -0.28997 -0.025594 0.55593 0.25356 -1.9612 -0.51381 0.69096 0.066246 -0.054224 3.7871 -0.77403 -0.12689 -0.51465 0.066705 -0.32933 0.13483 0.19049 0.13812 -0.21503 -0.016573 0.312 -0.33189 -0.026001 -0.38203 0.19403 -0.12466 -0.27557 0.30899 0.48497
was 0.086888 -0.19416 -0.24267 -0.33391 0.56731 0.39783 -0.97809 0.03159 -0.61469 -0.31406 0.56145 0.12886 -0.84193 -0.46992 0.47097 0.023012 -0.59609 0.22291 -1.1614 0.3865 0.067412 0.44883 0.17394 -0.53574 0.17909 -2.1647 -0.12827 0.29036 -0.15061 0.35242 3.124 -0.90085 -0.02567 -0.41709 0.40565 -0.22703 0.76829 0.60982 0.070068 -0.13271 -0.1201 0.096132 -0.43998 -0.48531 -0.5188 -0.3077 -0.75028 -0.77 0.3945 -0.16937
said 0.38973 -0.2121 0.51837 0.80136 1.0336 -0.27784 -0.84525 -0.25333 0.12586 -0.90342 0.24975 0.22022 -1.2053 -0.53771 1.0446 0.62778 0.39704 -0.15812 0.38102 -0.54674 -0.44009 1.0976 0.013069 -0.89971 0.41226 -2.2309 0.28997 0.32175 -0.72738 -0.092244 3.028 -0.062599 0.038329 0.0072918 -0.35388 -0.92256 0.097932 0.10068 1.2116 0.88233 -0.46297 1.3186 0.32705 -0.73446 0.89301 -0.45324 -1.2698 0.86119 0.1415 1.2018
with 0.25616 0.43694 -0.11889 0.20345 0.41959 0.85863 -0.60344 -0.31835 -0.6718 0.003984 -0.075159 0.11043 -0.73534 0.27436 0.054015 -0.23828 -0.13767 0.011573 -0.46623 -0.55233 0.083317 0.55938 0.51903 -0.27065 -0.28211 -1.3918 0.17498 0.26586 0.061449 -0.273 3.9032 0.38169 -0.056009 -0.004425 0.24033 0.30675 -0.12638 0.33436 0.075485 -0.036218 0.13691 0.37762 -0.12159 -0.13808 0.19505 0.22793 -0.17304 -0.07573 -0.25868 -0.39339
he -0.20092 -0.060271 -0.61766 -0.8444 0.5781 0.14671 -0.86098 0.6705 -0.86556 -0.18234 0.15856 0.45814 -1.0163 -0.35874 0.73869 -0.24048 -0.33893 0.25742 -0.78192 0.083528 0.1775 0.91773 0.64531 -0.19896 0.37416 -2.7525 -0.091586 0.040349 -0.064792 -0.31466 3.3944 0.044941 -0.55038 -0.65334 0.10436 0.016394 0.24388 1.0085 0.31412 -0.33806 -0.16925 0.10228 -0.62143 0.19829 -0.36147 -0.24769 -0.38989 -0.33317 -0.041659 -0.013171
as 0.20782 0.12713 -0.30188 -0.23125 0.30175 0.33194 -0.52776 -0.44042 -0.48348 0.03502 0.34782 0.54574 -0.2066 -0.083713 0.2462 0.15931 -0.0031349 0.32443 -0.4527 -0.22178 0.022652 -0.041714 0.31815 0.088633 -0.03801 -1.8212 -0.50917 -0.097544 -0.08953 0.050476 3.718 -0.16503 -0.078733 -0.57101 0.20418 0.13411 0.074281 0.087502 -0.25443 -0.15011 -0.15768 0.39606 -0.23646 -0.095054 0.07859 -0.012305 -0.49879 -0.35301 0.05058 0.019495
it 0.61183 -0.22072 -0.10898 -0.052967 0.50804 0.34684 -0.33558 -0.19152 -0.035865 0.1051 0.07935 0.2449 -0.4373 -0.33344 0.57479 0.69052 0.29713 0.090669 -0.54992 -0.46176 0.10113 -0.02024 0.28479 0.043512 0.45735 -2.0466 -0.58084 0.61797 0.6518 -0.58263 4.0786 -0.2542 -0.14649 -0.34321 -0.25437 -0.44677 0.12657 0.28134 0.13331 -0.36974 0.050059 -0.10058 -0.017907 0.11142 -0.71798 0.491 -0.099974 -0.043688 -0.097922 0.16806
by 0.35215 -0.35603 0.25708 -0.10611 -0.20718 0.63596 -1.0129 -0.45964 -0.48749 -0.080555 0.43769 0.46046 -0.80943 -0.23336 0.46623 -0.10866 -0.1221 -0.63544 -0.73486 -0.24848 0.4317 0.092264 0.52033 -0.46784 0.016798 -1.5124 -0.19986 -0.43351 -0.59247 0.18088 3.5194 -0.7024 0.23613 -0.68514 -0.37009 -0.080451 0.10635 -0.085495 -0.18451 0.29771 0.18123 0.53627 -0.1001 -0.55165 0.098833 -0.12942 -0.82628 -0.4329 -0.10301 -0.56079
at 0.27724 0.88469 -0.26247 0.084104 0.40813 -1.1697 -0.68522 0.1427 -0.57345 -0.58575 -0.50834 -0.86411 -0.52596 -0.56379 0.32862 0.43393 -0.21248 0.49365 -1.8137 -0.035741 1.3227 0.80865 0.012217 -0.087017 -0.16813 -1.5935 0.47034 0.26097 -0.41666 -0.38526 3.4413 0.34383 -0.035895 -0.5678 0.18377 -0.48647 0.42646 0.4408 1.0931 0.063915 -0.064305 -0.29231 0.086502 0.35245 0.17891 0.25941 0.37069 -0.51611 0.023163 0.05779
from 0.41037 0.11342 0.051524 -0.53833 -0.12913 0.22247 -0.9494 -0.18963 -0.36623 -0.067011 0.19356 -0.33044 0.11615 -0.58585 0.36106 0.12555 -0.3581 -0.023201 -1.2319 0.23383 0.71256 0.14824 0.50874 -0.12313 -0.20353 -1.82 0.22291 0.020291 -0.081743 -0.27481 3.7343 -0.01874 -0.084522 -0.30364 0.27959 0.043328 -0.24621 0.015373 0.49751 0.15108 -0.01619 0.40132 0.23067 -0.10743 -0.36625 -0.051135 0.041474 -0.36064 -0.19616 -0.81066
his -0.033537 0.47537 -0.68746 -0.72661 0.84028 0.64304 -0.75975 0.63242 -0.54176 0.11632 -0.20254 0.63321 -1.2677 -0.17674 0.35284 -0.55096 -0.65025 -0.3405 -0.31658 -0.077908 -0.11085 0.97299 -0.016844 -0.73752 0.47852 -2.7069 -0.42417 -0.053489 0.018467 -0.11892 3.3082 0.17864 -0.50702 -0.22894 0.24178 0.5698 0.097113 0.95422 0.0076093 -0.54154 0.09828 0.41533 -1.116 0.0050954 -0.14975 -0.45133 -0.081188 -0.62173 -0.022628 -0.4383
an 0.36143 0.58615 -0.23718 0.079656 0.80192 0.49919 -0.33172 -0.19785 0.13876 0.16804 0.12557 -0.24494 -0.092315 0.35135 -0.024396 -0.31713 0.071206 0.37087 -0.82027 0.21193 -0.052153 0.29928 -0.49494 -0.12546 -0.012394 -2.2174 -0.082666 0.15184 0.050396 0.61229 3.7305 -0.93152 -0.28716 -0.48056 0.060682 0.058104 0.42065 -0.046598 0.083503 -0.23819 0.38828 0.36926 -0.44066 0.075673 -0.050556 -0.42269 -0.21577 0.39362 0.36523 0.36077
be 0.91102 -0.22872 0.2077 -0.20237 0.50697 -0.057893 -0.41729 -0.075341 -0.30454 -0.003286 0.44481 0.41818 -0.33409 0.032917 0.98872 0.91984 0.40521 0.01925 -0.1052 -0.79865 -0.36403 -0.087995 0.72182 0.11114 0.2153 -1.9411 -0.26376 0.4455 0.27586 -0.21104 4.0212 -0.061943 -0.32134 -0.81922 0.2108 -0.20414 0.72625 0.47517 -0.39853 -0.39168 -0.34581 0.025928 0.13072 0.73562 -0.15199 -0.18439 -0.67128 0.16692 -0.050063 0.19241
has 0.54822 0.038847 0.10127 0.31319 0.095487 0.41814 -0.79493 -0.58296 0.026643 0.12392 0.35194 -0.02163 -0.87018 -0.27178 0.65449 0.42934 0.097544 0.31779 -0.11921 -0.097106 -0.47585 0.24907 0.1223 -0.29079 -0.16866 -2.1072 0.022174 0.45277 -0.64485 0.13181 3.6594 -0.1714 0.23919 -0.42249 -0.088331 -0.32925 -0.12847 0.47055 -0.075953 -0.27747 -0.41905 0.60803 -0.24261 0.014885 -0.23204 0.020879 -0.82175 0.26588 -0.40267 -0.17111
are 0.96193 0.012516 0.21733 -0.06539 0.26843 0.33586 -0.45112 -0.60547 -0.46845 -0.18412 0.060949 0.19597 0.22645 0.032802 0.42488 0.49678 0.65346 -0.0274 0.17809 -1.1979 -0.40634 -0.22659 1.1495 0.59342 -0.23759 -0.93254 -0.52502 0.05125 0.032248 -0.72774 4.2466 0.60592 0.33397 -0.85754 0.4895 0.21744 -0.13451 0.0094912 -0.54173 0.18857 -0.64506 0.012695 0.73452 1.0032 0.41874 0.16596 -0.71085 0.14032 -0.38468 -0.38712
have 0.94911 -0.34968 0.48125 -0.19306 -0.0088384 0.28182 -0.9613 -0.13581 -0.43083 -0.092933 0.15689 0.059585 -0.49635 -0.17414 0.75661 0.4921 0.21773 -0.22778 -0.13686 -0.90589 -0.48781 0.19919 0.91447 -0.16203 -0.20645 -1.7312 -0.47622 -0.04854 -0.14027 -0.45828 4.0326 0.6052 0.10448 -0.7361 0.2485 -0.033461 -0.13395 0.052782 -0.27268 0.079825 -0.80127 0.30831 0.43567 0.88747 0.29816 -0.02465 -0.95075 0.36233 -0.72512 -0.6089
but 0.35934 -0.2657 -0.046477 -0.2496 0.54676 0.25924 -0.64458 0.1736 -0.53056 0.13942 0.062324 0.18459 -0.75495 -0.19569 0.70799 0.44759 0.27031 -0.32885 -0.38891 -0.61606 -0.484 0.41703 0.34794 -0.19706 0.40734 -2.1488 -0.24284 0.33809 0.43993 -0.21616 3.7635 0.19002 -0.12503 -0.38228 0.12944 -0.18272 0.076803 0.51579 0.0072516 -0.29192 -0.27523 0.40593 -0.040394 0.28353 -0.024724 0.10563 -0.32879 0.10673 -0.11503 0.074678
were 0.73363 -0.74815 0.45913 -0.56041 0.091855 0.33015 -1.2034 -0.15565 -1.1205 -0.5938 0.23299 -0.46278 -0.34786 -0.47901 0.57621 -0.16053 -0.26457 -0.13732 -0.91878 -0.65339 0.05884 0.61553 1.2607 -0.39821 -0.26056 -1.0127 -0.38517 -0.096929 -0.11701 -0.48536 3.6902 0.30744 0.50713 -0.6537 0.80491 0.23672 0.61769 0.030195 -0.57645 0.60467 -0.63949 -0.11373 0.84984 0.41409 0.083774 -0.28737 -1.4735 -0.20095 -0.17246 -1.0984
not 0.55025 -0.24942 -0.0009386 -0.264 0.5932 0.2795 -0.25666 0.093076 -0.36288 0.090776 0.28409 0.71337 -0.4751 -0.24413 0.88424 0.89109 0.43009 -0.2733 0.11276 -0.81665 -0.41272 0.17754 0.61942 0.10466 0.33327 -2.3125 -0.52371 -0.021898 0.53801 -0.50615 3.8683 0.16642 -0.71981 -0.74728 0.11631 -0.37585 0.5552 0.12675 -0.22642 -0.10175 -0.35455 0.12348 0.16532 0.7042 -0.080231 -0.068406 -0.67626 0.33763 0.050139 0.33465
this 0.53074 0.40117 -0.40785 0.15444 0.47782 0.20754 -0.26951 -0.34023 -0.10879 0.10563 -0.10289 0.10849 -0.49681 -0.25128 0.84025 0.38949 0.32284 -0.22797 -0.44342 -0.31649 -0.12406 -0.2817 0.19467 0.055513 0.56705 -1.7419 -0.91145 0.27036 0.41927 0.020279 4.0405 -0.24943 -0.20416 -0.62762 -0.054783 -0.26883 0.18444 0.18204 -0.23536 -0.16155 -0.27655 0.035506 -0.38211 -0.00075134 -0.24822 0.28164 0.12819 0.28762 0.1444 0.23611
who -0.19461 -0.051277 0.26445 -0.57399 1.0236 0.58923 -1.3399 0.31032 -0.89433 -0.13192 0.21305 0.29171 -0.66079 0.084125 0.76578 -0.42393 0.32445 0.13603 -0.29987 -0.046415 -0.74811 1.2134 0.24988 0.22846 0.23546 -2.6054 0.12491 -0.94028 -0.58308 -0.32325 2.8419 0.33474 -0.33902 -0.23434 0.37735 0.093804 -0.25969 0.68889 0.37689 -0.2186 -0.24244 1.0029 0.18607 0.27486 0.48089 -0.43533 -1.1012 -0.67103 -0.21652 -0.025891
they 0.70835 -0.57361 0.15375 -0.63335 0.46879 -0.066566 -0.86826 0.35967 -0.64786 -0.22525 0.09752 0.27732 -0.35176 -0.25955 0.62368 0.60824 0.34905 -0.27195 -0.27981 -1.0183 -0.1487 0.41932 1.0342 0.17783 0.13569 -1.9999 -0.56163 0.004018 0.60839 -1.0031 3.9546 0.68698 -0.53593 -0.7427 0.18078 0.034527 0.016026 0.12467 -0.084633 -0.10375 -0.47862 -0.22314 0.25487 0.69985 0.32714 -0.15726 -0.6202 -0.23113 -0.31217 -0.3049
had 0.60348 -0.52096 0.40851 -0.37217 0.36978 0.61082 -1.3228 0.24375 -0.5942 -0.35708 0.39942 0.031911 -1.0643 -0.52327 0.71453 0.063384 -0.46383 -0.34641 -0.72445 -0.13714 -0.19179 0.72225 0.6295 -0.8086 -0.037694 -2.0355 0.10566 -0.038591 -0.23201 -0.29627 3.3215 0.032443 0.085368 -0.40771 0.45341 -0.099674 0.44704 0.5422 0.18185 0.17504 -0.33833 0.31697 -0.025268 0.095795 -0.25071 -0.47564 -1.0407 -0.15138 -0.22057 -0.59633
i 0.11891 0.15255 -0.082073 -0.74144 0.75917 -0.48328 -0.31009 0.51476 -0.98708 0.00061757 -0.15043 0.8377 -1.0797 -0.5146 1.3188 0.62007 0.13779 0.47108 -0.072874 -0.72675 -0.74116 0.75263 0.8818 0.29561 1.3548 -2.5701 -1.3523 0.4588 1.0068 -1.1856 3.4737 0.77898 -0.72929 0.25102 -0.26156 -0.34684 0.55841 0.75098 0.4983 -0.26823 -0.0027443 -0.018298 -0.28096 0.55318 0.037706 0.18555 -0.15025 -0.57512 -0.26671 0.92121
which 0.90558 0.054033 -0.024091 0.08111 0.08645 0.65504 -0.34224 -0.76129 0.10258 0.059494 0.30353 -0.10311 -0.28574 -0.35059 0.23319 0.27913 -0.0021905 0.16015 -0.65622 -0.13339 0.38494 -0.20867 0.26137 -0.090254 -0.34935 -1.5398 -0.46352 0.16734 -0.19253 -0.1979 4.008 -0.24514 -0.15461 -0.2889 -0.049511 -0.29696 0.2161 -0.15298 -0.12235 0.071447 -0.11104 -0.15518 -0.026936 -0.067826 -0.56607 0.20991 -0.40505 -0.12906 -0.18325 -0.58796
will 0.81544 0.30171 0.5472 0.46581 0.28531 -0.56112 -0.43913 -0.0090877 0.10002 -0.17218 0.28133 0.37672 -0.40756 0.15836 0.89113 1.2997 0.51508 -0.1948 0.051856 -0.9338 0.069955 -0.24876 -0.016723 -0.2031 -0.033558 -1.8132 0.11199 -0.31961 -0.13746 -0.45499 3.8856 1.214 -1.0046 -0.056274 0.0038776 -0.40669 0.29452 0.30171 0.038848 -0.56088 -0.46582 0.17155 0.33729 -0.15247 0.023771 0.51415 -0.21759 0.31965 -0.34741 0.41672
their 0.41519 0.13167 -0.0569 -0.56765 0.49924 0.21288 -0.81949 0.32257 -0.065374 -0.055513 0.11837 0.36933 -0.46424 -0.072383 0.068214 0.0014523 -0.07322 -0.65668 0.11368 -0.91816 0.029319 0.38103 0.34032 -0.21496 -0.26681 -1.6509 -0.71668 -0.41272 0.48465 -0.62432 4.1939 1.4292 -0.45902 -0.51709 0.2626 0.51086 -0.23999 -0.06962 -0.4561 -0.48333 -0.39544 -0.53831 -0.070727 0.54496 0.2351 -0.18746 -0.2242 -0.11806 -0.34499 -0.86949
or 0.26358 0.18747 0.044394 -0.19119 0.45455 0.66445 0.25855 -0.64886 -0.67653 0.045254 0.071081 0.3645 0.74863 -0.17489 0.28723 0.43277 -0.39184 -0.048568 -0.21373 -0.72992 0.13902 -0.23308 0.70256 0.2176 -0.20647 -1.415 -0.32587 -0.075019 0.88536 -0.56679 4.0296 0.019803 -0.57259 -0.060878 0.14667 0.16532 0.21188 -0.38358 0.42748 -0.096921 0.19285 0.021779 0.58562 0.97633 0.20384 -0.2162 -0.021486 -0.42936 0.52879 -0.12598
its 0.76719 0.1239 -0.11119 0.13355 0.18356 0.057912 -0.3341 -0.60423 0.47637 0.25451 0.19491 -0.061142 -0.45815 -0.17374 -0.32716 0.33472 -0.3218 0.090518 -0.24682 -0.35467 0.55269 -0.33177 -0.58048 -0.55391 -0.64466 -1.8028 -0.65173 0.4374 0.051813 0.22641 4.2766 0.19443 -0.13428 -0.10278 -0.062464 -0.39073 -0.29381 -0.013531 -0.58142 -0.69717 -0.068871 -0.50049 -0.013803 -0.11011 -0.64282 0.4396 -0.22455 0.4893 -0.26152 -0.46886
one 0.31474 0.41662 0.1348 0.15854 0.88812 0.43317 -0.55916 0.030476 -0.14623 -0.14273 -0.17949 -0.17343 -0.49264 0.26775 0.48799 -0.29537 0.18485 0.14937 -0.75009 -0.35651 -0.23699 0.1849 0.17237 0.23611 0.14077 -1.9031 -0.65353 -0.022539 0.10383 -0.43705 3.781 -0.044077 -0.046643 0.027274 0.51883 0.13353 0.23231 0.25599 0.060888 -0.065618 -0.15556 0.30818 -0.093586 0.33296 -0.14613 0.016332 -0.24251 -0.20526 0.07009 -0.11568
after 0.38315 -0.3561 -0.1283 -0.19527 0.047629 0.21468 -0.98765 0.82962 -0.42782 -0.22879 0.10712 -0.3087 -1.2069 -0.17713 0.88841 0.0056658 -0.77305 -0.66913 -1.3384 0.34676 0.5044 0.5125 0.26826 -0.65313 -0.081516 -2.1658 0.57974 0.036345 0.0090949 0.25772 3.4402 0.20732 -0.52028 0.026453 0.17895 -0.017802 0.36605 0.34539 0.41357 -0.2497 -0.49227 0.17745 -0.43764 -0.3484 -0.057061 -0.039578 -0.13517 -0.4258 0.13681 -0.77731
new 0.19511 0.50739 0.0014709 0.041914 -0.16759 0.037517 -1.397 -0.92398 -0.24296 -0.15171 -0.47829 0.054612 -0.24986 0.38398 0.016182 0.34938 -0.22627 0.086618 -0.41001 -0.18139 0.75607 -0.0262 -0.69557 0.10874 -0.47539 -1.8095 -0.1694 -0.059863 -0.16806 -0.094546 3.661 0.041462 -0.29161 -0.69772 0.30805 -0.28457 0.13217 -0.007643 -0.09239 -0.49237 -0.27055 0.060425 0.095107 -0.23679 -0.086108 1.0243 -0.22779 0.030488 -0.14272 0.45411
been 0.92884 -0.72457 0.068095 -0.3816 -0.038686 0.22314 -1.1041 0.0084314 -0.26638 -0.057147 0.33383 -0.02368 -0.7689 -0.17933 0.84499 0.28781 -0.12754 0.11154 -0.34022 -0.18687 -0.28446 0.32557 0.87015 -0.21355 -0.094175 -2.0216 -0.2176 0.45054 -0.14068 0.080753 3.7849 -0.4107 0.33195 -0.87998 0.17309 0.14065 0.22707 0.485 -0.51256 -0.021742 -0.69401 0.145 0.0082681 0.38385 0.16011 -0.35487 -1.1284 0.047085 -0.32297 -0.64192
also 0.352 0.25323 -0.097659 0.26108 0.12976 0.33684 -0.73076 -0.42641 -0.22795 -0.083619 0.52963 0.34644 -0.32824 -0.28667 0.24876 0.22053 0.019356 -0.015447 -0.18319 -0.29729 0.11739 -0.071214 0.41086 0.013912 -0.17424 -1.5839 -0.051961 -0.18115 -0.76375 -0.17817 3.749 -0.045559 0.10721 -0.51313 0.25279 -0.051714 0.31911 0.28 -0.19937 0.17819 0.018623 0.47641 -0.15655 -0.38287 0.26989 -0.011186 -0.7244 0.036514 -0.011489 -0.025882
we 0.57387 -0.32729 0.070521 -0.4198 0.862 -0.80001 -0.40604 0.15312 -0.29788 -0.1105 -0.097119 0.59642 -0.99814 -0.28148 1.0152 0.87544 1.0282 -0.05036 0.24194 -1.1426 -0.50601 0.64976 0.74833 0.020473 0.9595 -1.9204 -0.80656 0.29247 1.0009 -0.98565 4.0094 1.0407 -0.82849 -0.4847 -0.36146 -0.39552 0.27891 0.15312 0.15848 0.018686 -0.50905 -0.22916 0.1868 0.44946 0.10229 0.21882 -0.30608 0.48759 -0.18439 0.69939
would 0.7619 -0.29773 0.51396 -0.13303 0.24156 0.066799 -0.54084 0.2071 -0.28225 -0.11638 0.21666 0.54908 -0.36744 -0.10543 0.81567 1.1743 0.56055 -0.3345 0.099767 -0.87465 0.12229 -0.18532 0.086783 -0.36343 0.008002 -2.2268 -0.20079 -0.10313 0.24318 -0.39819 3.7136 0.59088 -1.1013 -0.25292 0.0057067 -0.60475 0.35965 -0.059581 -0.029059 -0.3989 -0.52631 0.12436 0.13609 0.12699 -0.23032 -0.044567 -0.6545 0.43088 -0.22768 0.4026
two 0.58289 0.36258 0.34065 0.36416 0.34337 0.79387 -0.9362 0.11432 -0.63005 -0.55524 -0.28706 -0.47143 -0.75673 0.63868 0.22479 -0.64652 -0.074314 -0.34903 -0.97285 -0.53981 0.015171 0.24479 0.62661 0.070447 -0.51629 -1.2004 0.3122 -0.44053 -0.29869 -0.56326 4.022 0.38463 -0.028468 0.068716 1.0746 0.48309 0.2475 0.22802 -0.35743 0.40392 -0.54738 0.15244 0.41 0.15702 0.0077935 -0.015106 -0.28653 -0.16158 -0.35169 -0.82555
more 0.87943 -0.11176 0.4338 -0.42919 0.41989 0.2183 -0.3674 -0.60889 -0.41072 0.4899 -0.4006 -0.50159 0.24187 -0.1564 0.67703 -0.021355 0.33676 0.35209 -0.24232 -1.0745 -0.13775 0.29949 0.44603 -0.14464 0.16625 -1.3699 -0.38233 -0.011387 0.38127 0.038097 4.3657 0.44172 0.34043 -0.35538 0.30073 -0.09223 -0.33221 0.37709 -0.29665 -0.30311 -0.49652 0.34285 0.77089 0.60848 0.15698 0.029356 -0.42687 0.37183 -0.71368 0.30175
first -0.14168 0.41108 -0.31227 0.16633 0.26124 0.45708 -1.2001 0.014923 -0.22779 -0.16937 0.34633 -0.12419 -0.65711 0.29226 0.62407 -0.57916 -0.33947 -0.22046 -1.4832 0.28958 0.081396 -0.21696 0.0056613 -0.054199 0.098504 -1.5874 -0.22867 -0.62957 -0.39542 -0.080841 3.5949 -0.16872 -0.39024 0.026912 0.52646 -0.022844 0.63289 0.62702 -0.22171 -0.45045 -0.14998 -0.27723 -0.46658 -0.44268 -0.43691 0.38455 0.1369 -0.25424 0.017821 -0.1489
about 0.89466 0.36604 0.37588 -0.41818 0.58462 0.18594 -0.41907 -0.46621 -0.54903 0.02477 -0.90816 -0.48271 -0.050742 -0.74039 1.4377 -0.01974 -0.2384 0.43154 -0.6612 -0.41275 0.25475 0.93498 0.81404 -0.17296 0.61296 -1.8475 -0.27616 0.27701 0.42347 -0.11599 3.6243 0.12306 -0.023526 -0.24843 -0.22376 -0.53941 -0.62444 -0.27711 0.49406 0.020234 -0.2346 0.44512 0.53397 0.66654 -0.093662 -0.035203 -0.064194 0.55998 -0.66593 0.12177
up 0.032286 -0.27071 0.68108 -0.27942 0.5797 -0.0081097 -0.82792 -0.53342 -0.47851 -0.068256 -0.46964 -0.31717 -0.49372 0.09808 0.49961 0.27305 0.099922 -0.16148 -0.69952 -0.70435 0.59084 0.62031 0.30467 -0.41578 -0.0222 -1.6312 0.54676 0.25754 0.44541 -0.72799 3.9129 0.80075 -0.18839 0.42435 0.039207 -0.093939 -0.39516 0.20976 0.59488 -0.3907 -0.31555 0.24074 0.41694 0.10415 -0.044305 -0.09516 0.25464 -0.56699 0.033216 -0.58123
when 0.27062 -0.36596 0.097193 -0.50708 0.37375 0.16736 -0.94185 0.54004 -0.66669 -0.24236 0.25876 0.28084 -0.86643 -0.068961 0.90346 0.40877 -0.39563 -0.25604 -1.0316 -0.26669 -0.080584 0.40841 0.55885 -0.18299 0.46494 -2.2671 0.14102 0.19841 0.5153 -0.27608 3.3604 0.15123 -0.36693 -0.28804 0.076042 -0.076662 0.21897 0.39001 0.38684 -0.16961 -0.33674 0.37094 -0.45911 0.00066285 -0.17797 0.12467 -0.015418 -0.75256 -0.17335 -0.22587
there 0.68491 0.32385 -0.11592 -0.35925 0.49889 0.042541 -0.40153 -0.36793 -0.61441 -0.41148 -0.3482 -0.21952 -0.22393 -0.64966 0.85443 0.33582 0.2931 0.16552 -0.55082 -0.61277 -0.14768 0.47551 0.65877 -0.07103 0.56147 -1.2651 -0.74117 0.36365 0.5623 -0.27365 3.8506 0.27645 -0.1009 -0.71568 0.18511 -0.12312 0.56631 -0.22377 -0.016831 0.57539 -0.51761 0.033823 0.19643 0.63498 -0.24866 0.038716 -0.50559 0.17874 -0.1693 0.062375
all 0.19253 0.10006 0.063798 -0.087664 0.52217 0.39105 -0.41975 -0.45671 -0.34053 -0.11175 0.014754 0.31734 -0.50853 -0.1156 0.74303 0.097618 0.34407 -0.1213 -0.16938 -0.84088 -0.11231 0.40602 0.76801 0.091138 0.10782 -1.2673 -0.57709 -0.36208 0.34824 -0.75458 4.0426 0.94967 -0.22668 -0.35777 0.3413 0.13072 0.23045 -0.036997 -0.25889 0.12977 -0.39031 -0.049607 0.45766 0.56782 -0.46165 0.41933 -0.5492 0.081191 -0.30485 -0.30513
out 0.32112 -0.69306 0.47922 -0.54602 0.28352 0.20346 -0.98445 -0.14103 -0.13147 -0.085975 -0.49509 0.00276 -1.1173 0.33729 0.61312 -0.06711 0.3538 -0.35183 -0.58191 -0.69525 -0.025032 0.61675 0.78522 -0.19594 0.26324 -1.8976 0.14645 0.48885 0.61818 -1.012 3.7285 0.66615 -0.33364 0.31896 -0.15174 0.3098 0.04967 0.27144 0.34595 -0.08185 -0.37469 0.39981 0.084925 0.31237 -0.12677 0.036322 -0.069533 -0.43547 -0.1108 -0.585
other 0.64756 0.16 0.029191 0.35118 0.089119 0.61115 -0.66362 -0.51724 -0.46521 -0.08845 0.0502 0.26329 0.12407 0.043832 0.17283 0.01317 0.14168 -0.15827 -0.10427 -0.9307 0.21646 -0.10753 0.62087 0.36761 -0.48144 -1.28 -0.55152 -0.72023 -0.17097 -0.47993 4.0165 0.47054 0.093614 -0.86341 0.50881 0.33353 -0.35962 -0.16648 -0.31803 0.49003 -0.36697 0.32051 0.70932 0.62878 0.70128 0.1302 -0.73769 0.10325 -0.30964 -0.44213
people 0.95281 -0.20608 0.55618 -0.46323 0.73354 0.029137 -0.19367 -0.090066 -0.22958 -0.19058 -0.34857 -1.0231 0.743 -0.5489 0.88484 -0.14051 0.0040139 0.58448 0.10767 -0.44657 -0.43205 0.9868 0.78288 0.51513 0.85788 -1.7713 -0.88259 -0.59728 0.084934 -0.48112 3.9678 0.8893 -0.27064 -0.44094 -0.26213 0.085597 0.022099 -0.58376 0.10908 0.77973 -0.95447 0.40482 0.8941 0.65251 0.39858 0.20884 -1.3281 -0.10882 -0.22822 -0.46303
her 0.13403 0.89178 -0.76761 -0.64184 0.86204 1.3122 -0.64018 0.82067 0.32783 0.021457 -0.095194 0.40825 -0.63602 -0.018275 0.69708 -0.29531 -1.1912 -0.23897 0.34341 -0.33196 0.23702 1.8364 0.12295 -0.18624 0.86503 -2.636 -0.7791 0.203 0.18985 -0.79897 2.9882 0.44336 -0.28367 -0.19588 0.061875 0.38558 -0.027622 0.71847 0.17156 -1.2168 0.081636 0.17293 -0.31718 -0.37039 0.18977 -0.89175 0.18492 -1.6251 0.039134 -0.10279
than 0.63139 0.15527 0.78529 -0.49967 0.61277 0.38457 -0.24403 -0.65573 -0.34068 0.48923 -0.28453 -0.72291 0.30131 -0.31671 0.98247 -0.020175 0.17482 0.54319 -0.64372 -0.97383 -0.32015 0.053901 0.47347 -0.1922 -0.025826 -1.419 -0.44523 0.018065 0.34342 0.088355 4.0942 0.45804 0.32831 -0.069244 0.26257 -0.2969 -0.28702 0.31656 -0.12812 -0.33309 -0.49709 0.43707 0.67268 0.72685 -0.21323 -0.095752 -0.25779 0.13059 -0.87146 0.19353
over 0.12972 0.088073 0.24375 0.078102 -0.12783 0.27831 -0.48693 0.19649 -0.39558 -0.28362 -0.47425 -0.59317 -0.58804 -0.31702 0.49593 0.0087594 0.039613 -0.42495 -0.97641 -0.46534 0.020675 0.086042 0.39317 -0.51255 -0.17913 -1.8333 0.5622 0.41626 0.075127 0.02189 3.784 0.71067 -0.073943 0.15373 -0.3853 -0.070163 -0.35374 0.074501 -0.084228 -0.45548 -0.081068 0.39157 0.173 0.2254 -0.12836 0.40951 -0.26079 0.090912 -0.60515 -0.9827
into 0.66749 -0.41321 0.065755 -0.46653 0.00027619 0.18348 -0.65269 0.093383 -0.0086802 -0.18874 -0.0063057 0.044894 -0.66801 0.48506 -0.1185 0.19968 0.1818 0.033144 -0.59108 -0.21829 0.41438 0.05674 0.42155 0.27798 -0.11322 -1.9227 0.035513 0.61928 0.62206 -0.63987 3.9115 -0.021078 -0.24685 -0.13922 -0.22545 0.59131 -0.7322 0.1162 0.4155 -0.15188 -0.14933 0.040739 -0.10415 0.23733 -0.438 0.06059 0.55073 -0.96571 -0.26875 -1.1741
last 0.32269 -0.11823 0.15135 0.43472 0.0047741 -0.076197 -1.1967 0.25108 -0.33441 -0.11988 -0.34367 -0.97407 -1.0005 -0.20005 1.5067 -0.0010902 -0.58248 -0.49877 -1.2107 0.19451 0.054259 0.16623 0.26524 -0.7074 -0.47836 -1.9295 0.11138 0.16526 -0.2542 0.26121 3.4639 0.34021 -0.25121 0.31737 0.2334 -0.40882 0.32076 0.31702 0.021898 -0.56169 -0.90129 0.23734 -0.057173 -0.2459 -0.061878 0.20674 -0.48696 0.3648 -0.1861 -0.34686
some 0.92871 -0.10834 0.21497 -0.50237 0.10379 0.22728 -0.54198 -0.29008 -0.64607 0.12664 -0.41487 -0.29343 0.36855 -0.41733 0.69116 0.067341 0.19715 -0.030465 -0.21723 -1.2238 0.0095469 0.19594 0.56595 -0.067473 0.059208 -1.3909 -0.89275 -0.13546 0.162 -0.4021 4.1644 0.37816 0.15797 -0.48892 0.23131 0.23258 -0.25314 -0.19977 -0.12258 0.1562 -0.31995 0.38314 0.47266 0.877 0.32223 0.0013292 -0.4986 0.5558 -0.70359 -0.52693
time 0.02648 0.33737 0.065667 -0.11609 0.41651 -0.21142 -0.69582 0.2822 -0.36077 -0.13822 0.012094 0.086227 -0.84638 0.057195 1.1582 0.14703 -0.0049197 -0.24899 -0.96014 -0.3038 0.23972 0.21058 0.40608 0.17789 0.55253 -1.6357 -0.17784 -0.45222 0.45805 0.14239 3.7087 0.40289 -0.4083 -0.29304 0.030857 -0.15361 0.10607 0.63397 0.12397 -0.25349 -0.10344 0.0069768 -0.17328 0.35536 -0.46369 0.15285 0.41475 -0.3398 -0.23043 0.19069
you -0.0010919 0.33324 0.35743 -0.54041 0.82032 -0.49391 -0.32588 0.0019972 -0.23829 0.35554 -0.60655 0.98932 -0.21786 0.11236 1.1494 0.73284 0.51182 0.29287 0.28388 -1.359 -0.37951 0.50943 0.7071 0.62941 1.0534 -2.1756 -1.3204 0.40001 1.5741 -1.66 3.7721 0.86949 -0.80439 0.1839 -0.34332 0.010714 0.23969 0.066748 0.70117 -0.73702 0.20877 0.11564 -0.1519 0.85908 0.2262 0.16519 0.36309 -0.45697 -0.048969 1.1316
years 0.16962 0.4344 -0.042106 -0.63324 -0.1278 0.53668 -1.0662 -0.32629 -0.50079 0.10247 -0.021968 -0.35105 -0.64153 -0.42454 1.3836 -0.13543 -0.24754 0.22156 -0.65563 0.44424 0.17017 0.35816 0.56379 -0.48044 -0.14765 -1.629 -0.31308 -0.47217 0.02659 0.47603 3.4619 0.12069 -0.045344 -0.47303 0.28569 -0.077584 -0.16447 0.7181 0.2617 -0.16841 -1.245 -0.076188 0.17493 0.24507 -0.63801 -0.21096 -0.49918 -0.50108 -0.7704 -0.32234
if 0.49861 -0.12284 0.44772 -0.082727 0.78117 0.12032 -0.044677 0.47959 -0.24538 0.07315 0.13542 0.47475 -0.45838 -0.125 1.2397 1.1176 0.52392 -0.25142 0.094939 -0.87224 -0.45383 -0.0098866 0.46122 0.23339 0.3067 -2.4232 -0.21251 0.37548 0.92848 -0.47064 3.6259 0.3914 -0.94158 -0.31952 -0.12849 -0.47342 0.41335 0.041173 0.30079 -0.61249 -0.23717 0.24716 -0.0447 0.62406 -0.27345 0.0087021 -0.22906 0.26395 -0.062214 0.6292
no 0.34957 0.40147 -0.012561 0.13743 0.4008 0.46682 -0.09743 -0.0024548 -0.33564 -0.004639 -0.059101 0.27532 -0.3974 -0.29267 0.97442 0.4188 0.18395 -0.20602 -0.061437 -0.61576 -0.53471 0.41536 0.34851 -0.31878 0.27404 -1.832 -0.82363 0.48816 1.1372 -0.38025 3.8114 0.2551 -0.70637 -0.2582 0.040929 -0.097378 0.79571 -0.49484 0.1087 0.14838 -0.1839 0.13312 0.21469 0.53932 -0.19338 -0.42216 -0.61411 0.70374 0.57591 0.43506
world -0.41486 0.71848 -0.3045 0.87445 0.22441 -0.56488 -0.37566 -0.44801 0.61347 -0.11359 0.74556 -0.10598 -1.1882 0.50974 1.3511 0.069851 0.73314 0.26773 -1.1787 -0.148 0.039853 0.033107 -0.27406 0.25125 0.41507 -1.6188 -0.81778 -0.73892 -0.28997 0.57277 3.4719 0.73817 -0.044495 -0.15119 -0.93503 -0.13152 -0.28562 0.76327 -0.83332 -0.6793 -0.39099 -0.64466 1.0044 -0.2051 0.46799 0.99314 -0.16221 -0.46022 -0.37639 -0.67542
can 0.8052 0.37121 0.55933 -0.011405 0.17319 0.195 0.057701 -0.12447 -0.011342 0.20654 0.41079 0.89578 0.31893 0.030787 0.60194 1.2023 0.68283 -0.13267 0.16984 -1.4674 -0.41844 -0.47395 0.7267 0.61088 0.44584 -1.4793 -0.50037 -0.12249 0.75994 -0.77112 3.9653 0.38077 -0.6439 -0.84899 0.07554 0.17522 0.30117 0.12964 0.27253 -0.32951 0.34211 0.15608 0.20953 0.97948 0.35927 0.19116 0.45494 -0.1895 -0.20902 0.47612
three 0.40545 0.43805 0.36237 0.25683 0.38254 0.68255 -0.97853 0.12741 -0.46129 -0.54809 -0.35384 -0.56697 -0.65756 0.50184 0.53248 -0.77956 -0.089944 -0.37572 -1.1097 -0.30734 -0.022657 0.11632 0.67704 -0.051499 -0.59719 -1.02 0.24289 -0.60216 -0.35183 -0.54053 3.9844 0.41521 0.040419 0.26909 1.1193 0.52924 0.37308 0.28924 -0.14714 0.23566 -0.72709 0.053276 0.45373 0.20374 -0.13384 0.015313 -0.22037 -0.15662 -0.30289 -0.77536
do 0.29605 -0.13841 0.043774 -0.38744 0.12262 -0.6518 -0.2824 0.090312 -0.55186 0.3206 0.0037422 0.93229 -0.22034 -0.21922 0.9217 0.75724 0.84892 -0.0042197 0.53626 -1.2667 -0.61028 0.167 0.82753 0.65765 0.48959 -1.9744 -1.149 -0.21461 0.80539 -1.4745 3.749 1.0141 -1.1293 -0.52661 -0.12029 -0.27931 0.065092 -0.043639 0.60426 -0.20892 -0.45739 0.010441 0.41458 0.689 0.14468 -0.031973 -0.048073 -0.00011279 0.13854 0.96954
only 0.24887 0.21487 0.22899 -0.12671 0.63105 0.51149 -0.4651 0.068288 -0.30937 -0.0070085 0.19937 -0.18019 -0.18827 -0.28697 0.78777 0.067418 0.20876 -0.077169 -0.69009 -0.42171 -0.39751 -0.050562 0.50292 0.10793 0.23047 -1.5503 -0.18474 -0.18316 0.26182 -0.2971 3.9005 0.27993 -0.16575 -0.19005 0.46649 -0.034911 0.57901 0.44878 -0.29949 -0.26163 -0.16132 0.022983 0.29275 0.46456 -0.59639 0.12681 -0.35771 0.029972 -0.14917 -0.084244
state -0.94222 -0.056474 0.089059 0.71375 -0.17706 -0.13514 -0.27893 0.32983 0.19097 -0.92034 -0.51169 -0.45742 0.45137 -0.52448 -0.11619 0.079781 0.19833 0.32391 0.42857 0.38807 0.091932 -0.58581 0.02845 -0.15399 -0.40969 -2.6746 0.14042 -0.13159 -0.42858 -0.35305 3.4471 -0.26412 -0.61443 -0.99791 0.060979 -0.1172 -0.23474 0.15544 0.5794 0.29043 -1.1877 0.51911 0.19409 -0.010452 -1.2179 0.67739 -1.039 0.53553 0.20895 0.10081
could 0.90754 -0.38322 0.67648 -0.20222 0.15156 0.13627 -0.48813 0.48223 -0.095715 0.18306 0.27007 0.41415 -0.48933 -0.0076005 0.79662 1.0989 0.53802 -0.54468 -0.16063 -0.98348 -0.19188 -0.2144 0.19959 -0.31341 0.24101 -2.2662 -0.25926 -0.10898 0.66177 -0.48104 3.6298 0.45397 -0.64484 -0.52244 0.042922 -0.16605 0.097102 0.044836 0.20389 -0.46322 -0.46434 0.32394 0.25984 0.40849 0.20351 0.058722 -0.16408 0.20672 -0.1844 0.071147
us 0.19086 0.24339 1.2768 -0.038207 0.6094 -0.70188 0.040862 -0.44903 0.0080416 -0.18819 -0.68578 -0.12465 -0.32855 -0.073507 0.79112 0.31981 0.081126 -0.033057 -0.6007 0.014536 0.42773 0.71318 0.13327 -0.64247 0.066402 -2.2346 0.013668 -0.45647 0.40542 -0.0042052 3.4561 0.54602 -0.3789 0.58198 -0.22852 -0.8409 -0.30465 -0.69669 -0.4232 -0.81757 0.036113 0.25739 1.745 -0.61482 0.41547 0.40002 -0.51528 0.89973 -0.54324 0.69393
most 0.53248 0.030684 -0.12955 -0.15673 0.25168 0.20269 -0.71869 -0.27819 -0.47384 0.49715 -0.12525 -0.249 0.23788 0.11087 0.44788 -0.10767 0.44033 0.16702 -0.34068 -0.5413 -0.56092 -0.12457 0.23586 0.39872 0.13578 -1.4765 -1.1334 -0.23475 0.17915 0.20182 3.9566 0.0092012 0.61391 -0.75382 0.42119 0.092947 -0.2623 0.48914 -0.78757 -0.10654 -0.68392 0.34472 0.4279 0.71161 0.051375 0.33759 -0.72084 0.069335 -0.34333 -0.067937
against -0.61258 -0.81097 -0.18426 0.33997 -0.22861 0.53968 0.29663 0.51186 -0.80497 0.12117 -0.34306 -0.35708 -1.1692 -0.90632 0.1854 -0.43402 0.2754 -0.92921 -1.2241 0.50564 -0.46115 -0.15904 0.32354 -0.38564 -1.0403 -2.6112 0.84161 -0.59595 0.28015 -0.24324 3.2053 0.64918 -0.45331 -0.42506 -0.19658 -0.018363 -0.045932 -0.11967 -0.64881 -0.75525 -0.14162 0.088434 0.41846 0.14613 0.39816 0.52819 -0.795 0.014036 0.17373 -0.67675
so 0.60308 -0.32024 0.088857 -0.55176 0.53182 0.047069 -0.36246 0.0057018 -0.37665 0.22534 -0.13534 0.35988 -0.42518 0.071324 0.77065 0.56712 0.41226 0.12451 0.1423 -0.96535 -0.39053 0.34199 0.56969 0.031635 0.69465 -1.9216 -0.67118 0.57971 0.86088 -0.59105 3.7787 0.30431 -0.043103 -0.42398 -0.063915 -0.066822 0.061983 0.56332 -0.22335 -0.47386 -0.47021 0.091714 0.14778 0.63805 -0.14356 -0.0022928 -0.315 -0.25187 -0.26879 0.36657
them 0.64642 -0.556 0.47038 -0.82074 0.79512 0.28771 -0.56426 0.1463 -0.52421 0.021607 -0.11266 0.31986 -0.057542 -0.23375 0.63703 0.3382 0.4649 -0.42398 0.091868 -0.8804 0.22077 0.7127 0.98196 -0.033819 0.31554 -1.8001 -0.26003 -0.37762 0.85634 -1.3393 3.6408 0.87273 -0.7923 -0.51268 0.14415 0.55439 0.1006 0.13233 -0.071904 -0.16399 -0.089989 -0.031932 0.6139 0.40419 0.22686 -0.18974 -0.55403 -0.35831 -0.10995 -0.447
what 0.45323 0.059811 -0.10577 -0.333 0.72359 -0.08717 -0.61053 -0.037695 -0.30945 0.21805 -0.43605 0.47318 -0.76866 -0.2713 1.1042 0.59141 0.56962 -0.18678 0.14867 -0.67292 -0.34672 0.52284 0.22959 -0.072014 0.93967 -2.3985 -1.3238 0.28698 0.75509 -0.76522 3.3425 0.17233 -0.51803 -0.8297 -0.29333 -0.50076 -0.15228 0.098973 0.18146 -0.1742 -0.40666 0.20348 -0.011788 0.48252 0.024598 0.34064 -0.084724 0.5324 -0.25103 0.62546
united -0.39874 0.071993 -0.069773 0.14706 0.1185 0.1477 -0.84431 0.1476 0.64804 -0.55926 0.50164 -0.073356 -0.41291 -0.53611 0.001539 0.13058 0.41344 -0.46995 -0.39555 0.31692 0.14235 -0.02784 0.15 0.046728 -0.4846 -2.1998 0.95655 -0.52361 -0.24962 0.071318 3.2888 0.20326 -0.38228 -0.66121 -0.1371 -0.76912 -0.099412 0.21231 -0.99046 -0.4815 0.05931 -0.28903 0.92223 -0.90738 -0.053878 1.0557 -0.9831 0.16757 -0.81659 -0.12107
during 0.29784 -0.018422 -0.71891 -0.4651 -0.45661 -0.0042153 -0.74598 0.34662 -0.51781 -0.5877 0.18398 -0.36903 -0.52225 -0.14082 0.83446 -0.26962 -0.89364 -0.11813 -1.3076 0.475 0.52815 -0.021974 0.61869 -0.65362 -0.14298 -1.6466 -0.05305 -0.17046 0.17048 0.75756 3.5832 0.13775 -0.37811 -0.48736 0.0069906 0.59913 0.31404 0.30734 -0.42397 0.35383 -0.97151 0.16082 -0.63666 -0.20449 -0.070846 -0.32219 -0.049254 -0.41865 -0.6899 -0.54908
before 0.30806 -0.29665 -0.25706 -0.5871 0.095135 -0.15211 -0.91478 0.75727 -0.30423 -0.29058 -0.13034 -0.10095 -0.89755 -0.0047833 0.8006 0.16963 -0.50634 -0.65842 -1.1339 -0.11095 0.65418 0.35378 0.6365 -0.30083 0.026192 -1.9383 0.69073 0.17019 0.19922 -0.39307 3.4795 0.32546 -0.76314 -0.15125 0.18169 -0.0076951 0.55525 0.56142 0.2797 -0.12891 -0.39037 0.0044389 -0.32367 0.0098883 -0.37866 0.30018 0.20875 -0.53844 -0.11058 -0.54785
may 0.7048 0.22261 0.086997 -0.21241 -0.089356 0.43742 -0.2817 0.13378 -0.50859 -0.18242 0.49506 0.42461 0.046785 -0.50121 0.84621 1.0146 -0.43954 -0.65499 -0.64706 -0.23365 0.27612 -0.63294 0.91064 0.033327 -0.058451 -1.6059 -0.34741 -0.36285 0.46723 0.244 3.4249 0.056168 -0.71991 -0.88332 0.33741 -0.53236 0.33991 0.023837 0.2384 -0.38713 -0.49621 -0.14846 0.046201 0.10325 0.17374 0.13763 0.084989 -0.39688 0.17632 0.31862
since 0.15423 -0.12552 0.022279 -0.067561 -0.35975 0.14409 -1.0902 -0.028693 -0.43147 -0.13781 0.37841 -0.63031 -0.9552 -0.20059 1.2613 0.35506 -0.48844 -0.1105 -0.99467 0.56709 0.014872 -0.10873 0.41999 -0.25197 -0.42385 -1.6795 0.021355 -0.11534 0.010638 0.91305 3.6854 -0.11751 -0.093662 -0.43435 0.013842 -0.18345 0.040666 0.39788 -0.33622 -0.20412 -1.1319 -0.12322 -0.24299 -0.11286 -0.55786 0.11893 -0.43917 -0.28507 -0.6303 -0.58676
many 0.6979 0.08234 0.041526 -0.50704 -0.15801 0.36048 -1.0745 -0.23927 -0.74704 0.16007 -0.1842 -0.079723 0.32044 -0.20326 0.59591 -0.067483 0.34272 -0.054553 0.061765 -1.0285 -0.019078 0.065302 0.42329 0.45624 0.20553 -1.2436 -1.1895 -0.66457 -0.049265 -0.26779 4.0103 0.4457 0.40423 -1.0601 0.2829 0.36724 -0.40097 -0.043859 -0.50993 0.39467 -0.68713 0.19318 0.46337 0.91707 0.49551 0.1565 -0.86741 0.037265 -0.60443 -0.64699
while 0.1011 -0.16566 0.22035 -0.10629 0.46929 0.37968 -0.62815 -0.14385 -0.38333 0.055405 0.23511 -0.20999 -0.55395 -0.38271 0.21008 0.02161 -0.23054 -0.13576 -0.61636 -0.4678 0.25716 0.62309 0.3837 -0.25665 0.09041 -1.5184 0.4762 -0.089573 0.025347 -0.25974 3.6121 0.62788 0.15387 -0.062747 0.28699 -0.16471 -0.2079 0.4407 0.065441 -0.10303 -0.15489 0.27352 0.38356 -0.098016 0.10705 -0.083071 -0.27168 -0.49441 0.043538 -0.39141
where 0.69237 0.44971 -0.20293 -0.16783 0.30503 -0.4876 -0.69028 0.18163 -0.16295 -0.47477 -0.0033044 -0.65208 -0.10148 -0.5751 0.30189 0.35639 0.28629 0.47367 -0.71456 -0.018865 0.17096 0.27097 0.19071 0.76326 -0.17586 -1.7981 -0.33722 0.27325 0.054095 -0.5235 3.4908 -0.027619 -0.23949 -0.86976 0.26612 0.087956 -0.19885 0.18534 0.4325 0.41208 -0.3919 0.22857 0.073443 0.10901 -0.23495 0.16082 -0.016364 -1.0347 -0.2416 -0.4868
states -0.42093 0.045655 0.1135 0.34526 0.09715 0.42206 -0.34718 0.010904 0.61307 -0.5734 0.29023 -0.21015 0.14544 -0.31479 0.16471 0.059054 0.16791 -0.58768 -0.063237 0.084685 0.21251 -0.5246 0.46017 -0.044725 -0.20827 -2.3662 0.37637 -0.68911 0.020944 -0.17156 3.3658 -0.10865 -0.49856 -0.84937 -0.15947 -0.92705 -0.3499 0.29612 -0.96039 -0.13339 -0.47849 -0.057402 1.3791 -0.68087 -0.29211 0.79177 -0.7364 0.13431 -0.79519 0.19546
because 0.52905 -0.30145 0.056191 -0.17905 0.15667 0.32943 -0.45908 0.37409 -0.072841 0.26107 0.36335 0.2312 -0.38076 -0.35675 1.0069 0.83946 0.074725 -0.13565 -0.10166 -0.70857 -0.38247 0.0081454 0.26605 -0.014551 0.16629 -2.2449 -0.45399 0.32594 0.82888 -0.098525 3.7015 0.28394 -0.078514 -0.74285 0.071688 -0.24046 0.15305 0.16139 0.034371 -0.30625 -0.66542 0.15977 0.17563 0.75779 -0.012878 -0.080298 -0.49508 0.067963 -0.10931 0.17161
now 0.40991 0.081369 0.29962 -0.2535 0.30073 -0.23569 -0.89244 -0.232 -0.24374 -0.14191 0.026541 -0.093562 -0.51718 -0.36123 0.60513 0.66266 0.30449 0.44857 -0.092027 -0.069213 -0.1058 0.10899 0.1033 0.34372 -0.04186 -1.9213 -0.33361 0.16119 0.084769 -0.28993 3.5443 0.26021 -0.023478 -0.39401 0.036919 -0.32256 -0.15009 0.48977 0.16311 -0.44252 -0.44062 -0.043155 0.23357 0.2823 -0.4349 0.40295 -0.47853 -0.332 -0.3991 0.13063
city 0.43945 0.43268 -0.36654 0.27781 0.062932 -0.80201 -0.93041 0.016388 -0.5503 -0.16278 -0.40351 -1.3975 0.32079 -0.88954 -0.18853 0.11516 0.045326 0.83002 -0.87595 0.77653 0.55948 0.074721 -0.84672 0.4098 -0.59774 -2.062 -0.15894 0.57979 0.2827 -1.0213 3.2488 0.50029 0.11559 -1.1707 0.19016 0.36888 -0.042018 0.028234 0.54125 0.8489 -0.66711 0.60799 0.23787 -0.65378 -0.7055 0.5165 -1.078 -0.71524 0.48402 -0.3256
made 0.14205 0.0046063 -0.40052 0.076568 0.27081 0.61955 -0.84904 -0.30413 -0.58594 0.092473 -0.034618 0.45746 -0.42953 -0.044566 0.38408 -0.096784 -0.048204 -0.26517 -0.50191 -0.51384 0.19384 0.15066 0.43169 -0.86243 0.059659 -1.5264 -0.11795 0.1915 0.10062 -0.49343 3.388 0.047361 -0.2738 0.03688 0.43812 0.28114 0.40339 0.87699 -0.40557 -0.15664 0.085523 0.36692 -0.081265 -0.32905 -0.069627 0.10247 -0.61574 0.27769 0.033304 -0.24918
like 0.36808 0.20834 -0.22319 0.046283 0.20098 0.27515 -0.77127 -0.76804 -0.34861 0.5062 -0.24401 0.71775 -0.33348 0.37554 0.44756 0.36698 0.43533 0.4757 -0.056113 -0.93531 -0.27591 0.3161 0.22116 0.36304 0.10757 -1.7638 -1.2624 0.30284 0.56286 -1.0214 3.2353 0.48483 0.027953 0.036082 -0.078554 0.18761 -0.52573 0.0372 0.27579 -0.07736 -0.27955 0.79752 0.0016028 0.45479 0.88382 0.43893 -0.19263 -0.67236 -0.39709 0.25183
between 0.7503 0.71623 -0.27033 0.20059 -0.17008 0.68568 -0.061672 -0.054638 -0.86404 -0.61395 -0.11047 -0.38827 -0.65705 -0.51993 -0.11222 0.35218 -0.062404 -0.1367 -0.74921 0.29496 0.646 -0.045973 0.67607 0.43915 -0.11932 -1.2565 0.61853 -0.057893 0.11771 0.45169 3.8217 0.19942 -0.3056 -0.3612 0.16007 -0.62274 -0.83083 -0.032579 -0.4838 0.60626 -0.22847 -0.073889 0.052593 0.039626 -0.72325 0.11038 0.35692 -0.26172 -0.67303 -0.87038
did 0.042523 -0.21172 0.044739 -0.19248 0.26224 0.0043991 -0.88195 0.55184 -0.64939 -0.17511 0.1225 0.68355 -0.82141 -0.35839 0.96636 0.54873 0.065911 -0.4903 -0.26302 -0.66737 -0.2046 0.37963 0.52251 -0.26308 0.40828 -2.2215 -0.5848 -0.26058 0.30964 -0.95756 3.0448 0.37217 -0.68005 -0.60398 0.13016 -0.29502 0.51808 0.29607 0.19795 -0.15422 -0.22707 0.16382 -0.092931 0.2265 0.036166 -0.0059486 -0.34131 0.12102 -0.23999 0.46656
just 0.17698 0.065221 0.28548 -0.4243 0.7499 -0.14892 -0.66786 0.11788 -0.45411 0.1854 -0.65107 -0.43436 -0.601 -0.11323 0.85217 0.25333 0.31332 0.059113 -0.88746 -0.46554 -0.30104 0.70689 0.4508 0.14714 0.68951 -1.849 -0.23012 0.67376 1.0314 -0.82298 3.6701 0.62587 -0.17666 0.22468 -0.029079 -0.25751 0.12939 0.44485 0.52806 -0.35906 -0.27806 0.20667 0.076161 0.32197 -0.40589 0.23199 0.20909 -0.29776 0.11035 0.22057
day 0.11626 0.53897 -0.39514 -0.26027 0.57706 -0.79198 -0.88374 0.30119 0.082896 -0.33443 -0.64467 -0.75366 -0.30356 0.07884 1.2252 -0.038627 -0.47341 -0.40556 -1.1165 -0.21352 0.49275 0.55574 0.38941 -0.22514 0.37775 -1.4233 -0.13409 0.10737 0.16528 0.35527 3.5733 0.76404 -0.59226 0.51366 0.12055 -0.36967 0.43251 0.086429 0.034554 0.082458 -0.8792 0.26134 -0.32132 -0.12652 0.25573 0.32818 0.024073 -0.39062 -0.10885 0.084513
country -0.13531 0.15485 -0.07309 0.034013 -0.054457 -0.20541 -0.60086 -0.22407 0.42615 0.0418 0.1217 -0.55817 -0.08953 0.0089426 0.59164 0.34329 0.64798 0.30052 0.48494 0.16524 -0.073664 0.31182 -0.083803 0.27026 0.10724 -1.7704 -0.36235 -0.15811 0.060038 0.67873 4.0124 0.43091 -0.26325 0.0561 -0.40052 -0.088487 -0.55339 -0.17892 -0.57372 -0.19628 -1.1624 0.12145 0.55842 -0.6194 -0.20974 0.49895 -1.0743 -0.028168 -0.18904 -0.6769
under 0.13721 -0.295 -0.05916 -0.59235 0.02301 0.21884 -0.34254 -0.70213 -0.55748 -0.78537 0.46417 0.44733 -0.74178 -0.46287 0.42665 0.39795 -0.21767 0.02626 -0.31353 0.07852 0.28495 0.11671 0.29981 -0.91376 -0.47744 -1.6573 0.0074029 -0.11224 -0.10604 0.29894 3.4634 -0.29341 -0.76777 -0.3012 -0.0037192 0.23122 0.47334 0.13078 0.050225 0.19911 -0.50179 -0.0034197 0.38654 0.057375 -1.0157 -0.33991 -0.6197 -0.59706 -0.11377 -0.64195
such 0.61012 0.33512 -0.53499 0.36139 -0.39866 0.70627 -0.18699 -0.77246 -0.034846 0.66066 0.08203 0.79279 0.05707 -0.18946 0.17522 0.13938 0.31923 -0.075718 0.12428 -1.063 0.28938 -0.29671 0.11209 0.073609 -0.22206 -1.255 -1.0307 -0.46799 0.2385 -0.21157 3.8345 0.16838 0.018882 -0.9855 0.096963 0.26432 -0.18384 -0.22391 -0.53277 0.41996 -0.11031 0.42182 0.27344 0.496 0.79203 0.24127 -0.41725 0.28288 -0.28283 0.084747
second -0.29809 0.28069 0.087102 0.54455 0.70003 0.44778 -0.72565 0.62309 0.00068863 -0.021056 0.25279 -0.55761 -1.0997 0.039402 0.52667 -0.63019 -0.18665 -0.79278 -1.5962 0.25619 -0.19394 -0.43099 -0.17204 -0.1613 0.15095 -1.6053 0.15869 -0.44338 -0.13576 -0.04376 3.4702 0.1412 -0.11392 0.54512 0.45893 -0.18561 0.56094 0.87956 0.00051749 -0.57134 -0.11777 -0.13594 -0.38943 -0.79267 -0.57329 0.38209 0.45584 -0.48396 0.34966 -0.29908
then 0.19565 -0.32773 0.061642 -0.61557 0.55709 0.1319 -0.64021 0.59467 -0.56031 -0.39703 0.28233 0.40593 -0.76741 -0.12291 0.31465 0.28005 -0.16861 -0.1576 -0.81441 -0.22847 0.3412 0.13389 0.79958 0.10831 0.29309 -2.0116 0.44809 0.22424 0.28911 -0.7811 3.3622 -0.050498 -0.5573 -0.2944 0.072648 0.058602 0.22786 0.67369 0.48985 -0.10922 0.15652 0.13199 -0.56275 -0.072733 -0.58805 0.044076 0.25782 -1.0728 -0.088545 -0.31418
company 0.62583 -0.57703 0.41163 0.86812 -0.083097 0.26555 -1.48 -0.38792 0.42727 0.1168 0.7839 0.81352 -0.78763 -0.6544 -0.099214 0.20658 -0.73315 0.86418 -0.26917 -0.93792 1.919 -0.17473 -0.61905 -0.5035 -0.9341 -1.6755 -0.79399 -0.32003 -0.067678 -0.12344 3.2909 -0.43151 0.3879 0.38733 -0.018419 -0.98191 -0.53189 0.39866 0.89452 -0.40963 0.58922 -0.52377 0.27893 -0.25766 -0.30457 -0.066305 -1.1221 0.21582 -0.15586 0.64018
group 0.74048 -0.1201 0.039916 0.77326 0.80822 0.32251 -0.77215 -0.35964 0.052412 0.088437 0.81699 -0.43037 -0.83637 0.44307 -0.76235 -0.46153 0.51897 0.010496 -0.66992 -0.15137 0.34948 0.45595 0.18992 0.54493 -1.4771 -1.1608 -0.74422 -0.86467 -1.278 -0.064544 3.6217 0.056087 -0.29725 -0.081222 -0.32781 -1.0023 -0.47127 -0.8349 0.027287 -0.096889 0.21902 -0.74387 0.12332 -0.40643 1.0687 -0.19225 -1.1237 0.076487 -0.28012 -0.051703
any 0.51292 0.09032 0.023552 0.21438 0.70226 0.5623 0.11839 0.25641 -0.039706 0.095389 -0.015477 0.37808 -0.1616 -0.18322 0.80726 0.521 0.40167 -0.51684 -0.056347 -0.95212 0.042801 -0.082442 0.23867 -0.10777 0.12598 -2.033 -0.48642 -0.018917 1.0034 -0.16553 3.8562 0.10825 -0.81231 -0.82064 0.098151 -0.025282 0.27985 -0.28044 -0.40594 -0.14185 0.0028418 -0.046259 0.093178 0.9383 -0.039413 -0.35659 -0.33987 1.1585 0.29796 0.075048
through 0.64925 0.068384 0.031703 -0.51479 -0.52809 -0.068008 -0.80786 -0.080712 0.52543 -0.020451 -0.26222 -0.077934 -0.54208 -0.0044965 -0.18831 -0.058391 -0.10829 -0.32967 -0.37944 -0.30563 0.74476 0.18284 0.31539 0.18516 0.32603 -1.4627 0.29471 0.2981 0.3911 -0.71861 3.9504 0.32215 -0.11705 -0.57798 -0.35637 0.29018 -0.41629 0.26993 0.23642 0.25035 -0.074786 -0.1193 -0.12565 0.25444 -0.60505 -0.12684 0.70263 -0.81355 -0.29753 -0.80957
china -0.22427 0.27427 0.054742 1.4692 0.061821 -0.51894 0.45027 -0.32164 0.57876 -0.049142 0.52523 -0.18784 0.52539 -0.058431 0.19741 0.30754 -0.45412 0.38268 0.33441 0.42801 0.98406 -0.7637 -0.066755 -1.0027 1.1942 -2.3916 0.24326 -0.40705 -0.63413 -0.20832 3.8851 0.75046 0.14857 0.24485 -1.0143 -0.76356 -0.63824 0.73037 -1.2025 0.18932 -1.2139 -0.55377 1.3033 -0.82461 0.9965 0.15117 -0.65753 0.28569 0.45374 -0.85646
four 0.33375 0.44809 0.54759 0.21497 0.32637 0.70326 -0.95872 0.057798 -0.43454 -0.55322 -0.40482 -0.65793 -0.75076 0.58097 0.51968 -0.86607 -0.10026 -0.11609 -1.2668 -0.46131 -0.10421 0.13894 0.70448 -0.0040651 -0.56479 -0.99797 0.30126 -0.53745 -0.42073 -0.49521 3.9051 0.43253 0.017059 0.31489 1.2546 0.52463 0.46232 0.29622 -0.23879 0.12913 -0.75519 -0.065684 0.52592 0.20047 -0.15982 0.18293 -0.29966 -0.1926 -0.30174 -0.80437
being 0.59049 -0.66076 -0.02551 -0.66217 0.3834 0.31517 -0.82654 0.14879 -0.36427 0.015319 0.51745 0.2739 -0.42352 -0.1069 0.65642 0.13723 -0.011125 0.38913 -0.54748 -0.15923 -0.26029 0.37735 0.83593 0.16307 0.013573 -2.0174 -0.15106 0.49917 0.1841 -0.17101 3.5601 -0.35118 0.24638 -0.94568 0.22149 0.22784 0.56643 0.41457 -0.58431 -0.39573 -0.26413 -0.18254 0.00017507 0.47701 -0.15756 -0.43371 -1.0655 -0.41736 0.086398 -0.38974
down -0.1981 -0.70847 0.85857 -0.48108 0.51562 -0.28924 -0.64311 -0.41966 -0.68718 -0.12307 -0.44594 -0.35226 -0.84826 0.12962 0.20005 0.48916 -0.20257 -0.53341 -0.96196 -0.67681 0.69808 0.50599 0.24012 -0.72813 0.11396 -1.8256 0.8098 0.65007 0.73111 -0.50325 3.5865 0.30906 -0.14279 0.6753 -0.074059 -0.45274 -0.28001 -0.20383 0.61044 -0.24875 -0.47409 0.25916 0.41522 0.15245 0.093191 -0.091906 0.40082 -0.90268 0.30191 -0.89862
back 0.0046218 -0.25678 0.3532 -0.82697 0.099033 -0.27524 -1.2297 0.37345 -0.44635 -0.36967 -0.12421 0.20837 -1.1801 0.045587 0.47457 0.40557 0.046003 -0.62809 -0.70816 -0.42283 -0.24011 0.44871 0.14759 -0.17298 0.31948 -2.0483 0.43036 0.44567 0.52804 -0.72942 3.5192 0.72008 -0.19861 0.42855 0.029422 0.15914 -0.16062 0.3479 0.35462 -0.53138 -0.28746 0.35596 -0.083996 -0.0064132 -0.32994 0.055304 0.50614 -0.80837 -0.33017 -0.62638
off 0.45341 -0.71044 0.25826 -0.015757 0.14649 0.031418 -1.0812 0.31886 0.055295 -0.12677 -0.45668 0.030006 -0.81975 0.55073 0.15524 -0.018467 0.074422 -0.56719 -1.5538 -0.60283 0.16099 0.45487 0.17386 -0.24204 0.38416 -1.9726 1.013 0.80808 0.88332 -0.9352 3.5564 0.5633 0.036648 0.94056 0.045721 0.013343 -0.27625 0.14873 0.37149 -0.15766 -0.33456 0.71518 0.24446 0.087958 -0.11456 0.13934 0.33379 -0.84455 0.24269 -0.66447
american -1.0988 0.48544 -0.5004 0.1491 0.41042 0.32605 -1.4592 -0.52025 -0.088054 -0.2384 0.43632 -0.14949 0.12491 0.71661 0.037183 -0.60692 0.034298 0.017432 -0.87692 -0.21223 0.10612 0.61057 -0.44873 -0.03961 -0.23466 -2.0954 -0.85982 -0.97872 0.068549 0.2635 3.0317 -0.38539 -0.17444 -0.47553 -0.083736 -0.65646 -0.768 -0.30997 -0.44042 -0.34611 -0.15336 0.0090824 1.2306 -0.35248 0.87702 0.31172 -0.54675 -0.10366 -0.86998 0.42675
well 0.27691 0.28745 -0.29935 -0.19964 0.12956 0.15555 -0.64522 -0.3409 -0.11833 0.15798 0.13969 0.24872 -0.15901 -0.033439 0.11895 0.076535 0.45263 0.26494 -0.19157 -0.56768 0.029286 0.21745 0.43406 0.14981 0.075774 -1.4453 -0.58394 -0.046063 0.066214 -0.26417 3.965 0.25196 0.24855 -0.50524 0.25806 0.28683 -0.17994 0.62885 -0.1204 -0.042143 -0.044911 0.18561 0.16266 -0.0026127 0.13083 0.20179 -0.29667 -0.09482 -0.2125 0.022074
including 0.48518 0.56214 0.064657 0.44652 -0.29881 0.91376 -0.84552 -0.93462 0.093077 0.05312 -0.25653 -0.16388 -0.084874 -0.084588 0.28105 -0.55097 -0.022583 0.078236 -0.32487 -0.28224 0.51683 0.22509 0.20189 -0.21816 -0.81741 -1.0254 -0.27715 -0.80942 -0.61824 -0.22689 3.47 0.17391 0.13567 -0.41534 0.61925 0.50792 -0.08481 -0.10788 -0.23281 0.50943 -0.37383 0.59976 0.55221 -0.078815 0.47338 0.070097 -0.8109 0.0085293 -0.43153 -0.40666
week 0.25009 -0.033956 0.094114 0.32336 -0.01654 -0.63211 -1.2778 0.32265 -0.14109 -0.29001 -0.73881 -1.0599 -0.69152 0.066963 1.4545 0.24474 -0.7986 -0.84672 -0.80999 -0.10354 0.59366 0.47797 0.33725 -0.42843 -0.34131 -1.8441 0.30726 0.29596 -0.40516 0.34157 3.4163 0.4477 -0.43271 0.12544 0.055593 -0.57397 0.18095 0.092258 0.072602 -0.48368 -0.71812 0.39523 -0.12913 -0.2552 0.41018 0.1954 -0.12005 0.8398 -0.29115 0.078721
still 0.47689 -0.076447 0.36768 -0.3947 0.47169 -0.038062 -0.78328 0.14814 -0.30044 -0.072707 -0.030916 -0.16829 -0.53569 -0.16432 0.78732 0.52064 0.15539 -0.0074076 -0.0546 -0.6647 -0.51966 0.40417 0.24546 -0.0038311 0.35098 -1.8132 -0.51917 0.50432 0.49551 -0.085036 3.5993 0.29352 0.26488 -0.36079 -0.013431 -0.11533 -0.1946 0.31915 0.014437 -0.42448 -0.56024 0.023142 0.31161 0.44714 0.039094 0.23879 -0.45699 -0.10113 -0.38907 -0.37151
both 0.25707 0.25305 -0.082529 0.12036 0.19351 0.66386 -0.45209 -0.084674 -0.57591 -0.0055412 0.35637 0.1987 -0.68307 -0.15141 -0.093202 0.11426 0.27492 -0.23495 -0.21676 -0.61231 -0.1915 0.19664 0.51456 0.16767 0.033627 -1.4032 -0.077227 -0.32463 -0.32382 -0.23254 3.6787 0.34334 0.16075 -0.75931 0.36933 -0.10338 -0.06278 0.47076 -0.64781 -0.055166 -0.096726 0.11986 0.14052 0.018292 -0.05436 0.12612 -0.40612 -0.095894 -0.35745 -0.17943
even 0.38336 -0.095871 0.12229 -0.51625 0.3491 0.1705 -0.55374 -0.0017357 -0.47808 0.43859 -0.25184 0.16347 -0.22387 -0.017963 0.80635 0.42586 0.14927 -0.19596 -0.097068 -0.97429 -0.32088 0.15314 0.26854 -0.011203 0.38486 -2.0684 -0.72715 0.31925 0.78713 -0.22962 3.5621 0.53464 -0.013249 -0.53812 -0.017443 -0.14833 -0.20759 0.39231 -0.30361 -0.44828 -0.48433 0.39363 0.1097 0.72701 0.10325 0.060643 -0.26806 -0.056359 -0.34692 0.13303
high -0.65758 1.2502 0.19082 -0.6742 -0.10125 -0.046932 -0.27648 -0.48253 0.39254 0.3704 -0.24111 -0.6429 0.27676 -0.62422 -0.52203 0.29799 -0.1996 0.36884 -0.81686 -0.48865 0.11511 0.066147 -0.38797 -0.18239 -0.5759 -1.8776 0.61045 0.43434 -0.090497 0.17718 3.4808 0.026707 0.60486 -0.7885 1.248 -0.32864 -0.15526 0.12868 0.65885 -0.27297 -0.69856 0.46953 0.19621 0.40444 0.061996 0.046055 0.72038 -0.45636 -0.19089 0.099351
part 0.70504 0.18255 -0.75188 0.0039397 -0.053423 0.29625 -0.42377 -0.013111 0.16573 -0.43932 0.07506 -0.16262 -0.26635 -0.40453 -0.098246 0.14215 0.34546 0.3634 -0.40502 0.3591 0.37462 -0.33984 -0.24689 0.33546 -0.36193 -1.7587 -0.72343 0.14269 -0.099759 -0.16071 3.6203 -0.25283 -0.24719 -0.53168 -0.050993 0.017225 -0.12073 -0.021644 -0.36179 -0.086212 -0.32108 -0.16623 -0.2044 -0.46124 -0.85036 0.16189 -0.14281 -0.13137 -0.41208 -0.092147
those 0.65102 0.0025814 0.45799 -0.48064 0.38459 0.56754 -0.44011 -0.44394 -0.53883 0.17027 -0.27204 0.10995 -0.06457 -0.27384 0.8027 0.23735 0.073204 -0.41719 0.20823 -0.97234 -0.13032 0.3294 0.85485 -0.15885 -0.036028 -1.4057 -0.8052 -0.36856 0.52335 -0.64427 3.819 0.92642 0.034423 -0.85155 0.39647 0.028646 -0.13414 -0.057982 -0.37909 0.099795 -0.78039 0.11373 0.76026 0.90107 0.09539 -0.046433 -0.7663 0.21574 -0.3297 -0.18945
end -0.04116 0.22243 -0.11458 -0.33628 0.038872 -0.066803 -0.58309 -0.19971 -0.51087 -0.29037 -0.49177 -0.13533 -1.0737 -0.4156 0.81837 0.47902 0.078869 -0.60318 -0.5732 0.065613 0.21122 -0.20912 -0.27305 -0.21332 -0.077237 -1.4695 0.46413 0.1222 0.80235 0.25796 3.7452 0.14293 -0.51556 0.34662 0.12782 -0.21896 0.15115 -0.2969 -0.37945 -0.41931 -0.74006 -0.10499 -0.31756 -0.23893 -0.40606 0.24247 0.55832 -0.1801 -0.37332 -0.18039
these 1.0074 0.18912 -0.11732 -0.36526 -0.051616 0.54116 -0.15308 -0.52727 -0.48022 -0.0072622 -0.098221 0.7238 0.062491 -0.12209 0.24678 0.20053 0.40764 -0.33904 0.046177 -1.1647 0.11035 -0.40562 0.97288 0.13208 0.17939 -0.85647 -1.2987 -0.44078 0.53287 -0.5479 4.1549 0.23097 0.15859 -1.3329 0.33413 0.46252 0.012145 -0.16786 -0.70963 0.38012 -0.47236 -0.30736 0.53575 0.95753 0.27464 0.16299 -0.22378 0.12912 -0.3995 -0.25768
make 0.55494 -0.048714 0.07152 -0.071538 0.4115 0.18034 -0.48436 -0.03592 -0.15302 0.43587 -0.30612 0.40199 -0.01432 0.15249 0.55544 0.44785 0.75881 -0.20428 0.25571 -1.0264 0.12219 -0.03706 0.14761 -0.087048 0.27103 -1.6697 -0.40418 -0.22598 0.7748 -0.85116 3.796 0.83318 -0.78647 -0.037684 0.22303 0.071425 0.0067017 0.57189 -0.21843 -0.5835 -0.21028 0.1189 0.30614 0.32978 0.11962 0.30695 -0.18082 0.4535 -0.086564 0.40418
work 0.51359 0.19695 -0.51944 -0.86218 0.015494 0.10973 -0.80293 -0.33361 -0.00016119 0.010189 0.046734 0.46751 -0.47475 0.11038 0.39327 -0.43652 0.39984 0.27109 0.4265 -0.6064 0.81145 0.4563 -0.12726 -0.22474 0.64071 -1.2767 -0.72231 -0.6959 0.028045 -0.23072 3.7996 -0.12625 -0.47967 -0.99972 -0.21976 0.50565 0.025953 0.80514 0.19929 0.28796 -0.15915 -0.30438 0.16025 -0.1829 -0.038563 -0.17619 0.027041 0.046842 -0.62897 0.35726
our 0.3466 0.40689 -0.079036 -0.57072 1.1977 -0.51464 -0.2388 -0.034331 0.57132 -0.27414 0.073571 0.75262 -0.7283 0.071427 -0.053052 0.40254 0.46029 -0.034256 0.85873 -0.83386 -0.25568 0.64828 0.0048025 -0.33206 0.64316 -1.8139 -1.1584 -0.132 1.1031 -0.37694 3.9004 1.4353 -0.54368 -0.55533 -0.4973 0.12035 -0.44885 -0.10704 -0.18783 -0.21098 -0.46421 -0.69106 0.17528 0.38369 -0.011065 0.33085 -0.37936 0.31382 -0.18248 0.10831
home 0.23302 0.45885 0.26602 0.038204 0.56694 -0.51194 -1.7831 0.43072 0.0013246 0.017852 -0.51549 -0.54466 -0.25115 -0.37632 0.40969 0.070356 -0.2612 -0.0027769 -0.51361 0.29828 0.14496 0.53748 -0.62443 0.41379 -0.22006 -1.6277 0.29026 -0.01853 0.51004 -0.61231 3.238 0.74873 0.18835 0.022167 0.57824 0.52022 0.15287 0.41601 0.5526 -0.40373 -0.18057 0.20914 -0.23873 0.11284 -0.007494 0.57918 -0.43641 -0.80904 0.2041 -0.19532
school -0.90629 1.2485 -0.79692 -1.4027 -0.038458 -0.25177 -1.2838 -0.58413 -0.11179 -0.56908 -0.34842 -0.39626 -0.0090178 -1.0691 -0.35368 -0.052826 -0.37056 1.0931 -0.19205 0.44648 0.45169 0.72104 -0.61103 0.6315 -0.49044 -1.7517 0.055979 -0.52281 -1.0248 -0.89142 3.0695 0.14483 -0.13938 -1.3907 1.2123 0.40173 0.4171 0.27364 0.98673 0.027599 -0.8724 -0.51648 -0.30662 0.37784 0.016734 0.23813 0.49411 -0.56643 -0.18744 0.62809
party -0.5527 -0.18334 0.41146 0.1871 0.32366 0.81401 -0.25834 -0.037991 -1.2893 -0.69391 -0.43524 -0.84417 -0.4435 0.81766 -0.42273 -0.25819 0.22241 -0.24498 0.74857 -0.18836 -0.20798 -0.10965 0.43051 0.34885 0.0047003 -1.8722 -0.45693 -0.59019 -1.0799 0.89101 3.2906 0.60932 -1.8394 -0.001393 -1.2088 -0.5424 -0.20398 -0.01065 -0.47815 -0.35888 -0.43413 0.10943 -1.5387 -0.10608 -0.30507 0.0013978 -1.9332 -0.4289 1.0175 -0.59931
house 0.60137 0.28521 -0.032038 -0.43026 0.74806 0.26223 -0.97361 0.078581 -0.57588 -1.188 -1.8507 -0.24887 0.055549 0.0086155 0.067951 0.40554 -0.073998 -0.21318 0.37167 -0.71791 1.2234 0.35546 -0.41537 -0.21931 -0.39661 -1.7831 -0.41507 0.29533 -0.41254 0.020096 2.7425 -0.9926 -0.71033 -0.46813 0.28265 -0.077639 0.3041 -0.06644 0.3951 -0.70747 -0.38894 0.23158 -0.49508 0.14612 -0.02314 0.56389 -0.86188 -1.0278 0.039922 0.20018
old -0.48533 0.98378 -0.29031 -0.33076 0.7467 0.59922 -1.4261 0.084897 -0.25334 -0.10804 -0.073621 -0.24042 -0.60009 0.27719 0.61283 0.077262 -0.47997 0.50699 0.1302 0.66519 -0.84582 0.94113 -1.0953 0.40358 0.16514 -2.5206 -0.16821 0.20541 0.20474 0.07438 2.7209 -0.70897 -0.049539 0.96305 0.72107 0.55294 -0.13857 0.59796 0.58361 -0.42162 -0.21735 0.36125 0.18277 0.33058 0.58751 0.1003 -0.16219 -0.95943 0.03837 -0.73304
get 0.1591 -0.21428 0.63099 -0.5995 0.31248 -0.16615 -0.90548 0.45115 0.051568 0.2591 -0.32882 0.48155 -0.34982 0.12905 1.0758 0.4869 0.5342 0.059762 0.2166 -1.1059 -0.25591 0.57462 0.54562 0.31043 0.37765 -2.0337 -0.22496 0.18447 0.82587 -1.1991 3.6042 1.1605 -0.59787 0.13 0.15678 0.13166 0.1851 0.36308 0.57538 -0.89593 -0.36366 0.28397 0.048614 0.7878 -0.087311 -0.23394 -0.14237 0.021215 -0.14219 0.66955
another 0.50759 0.26321 0.19638 0.18407 0.90792 0.45267 -0.54491 0.41816 0.039569 0.061854 -0.24574 -0.38502 -0.39649 0.32165 0.59611 -0.3997 -0.015734 0.074218 -0.83148 -0.019284 -0.21331 0.12873 -0.2541 0.079348 0.12588 -2.1294 -0.29092 0.044597 0.27354 -0.037492 3.458 -0.34642 -0.32803 0.17566 0.22467 0.08987 0.24528 0.070129 0.2165 -0.44313 0.02516 0.40817 -0.33533 0.0067758 0.11499 -0.15701 -0.085219 0.018568 0.26125 0.015387
news -0.20825 0.47786 0.52196 1.0587 -0.10045 -1.1269 -1.2581 -0.11041 -0.074125 -0.77976 -0.37942 -0.2486 -0.39224 0.42972 0.9806 0.12668 -1.3772 -0.22793 -0.18497 0.41014 0.96781 0.8916 0.84685 0.57416 0.46455 -1.7287 -0.63918 0.56256 -0.12651 0.49711 3.3326 0.034399 0.46149 -0.44826 -1.1945 -0.47593 -0.31927 -0.6442 0.089735 0.073952 0.70755 0.52948 -0.12034 -0.46779 0.24722 0.28045 -0.62632 1.4458 0.51045 0.74156
long 0.46955 0.82963 -0.13828 -0.45398 -0.075682 0.45397 -0.37753 -0.31824 0.04492 -0.23272 -0.65296 0.0076419 -0.52617 0.29746 0.23553 0.19954 0.17268 -0.027087 -0.30702 -0.27463 -0.50451 0.06611 0.048848 -0.3727 0.28044 -2.012 0.32445 0.696 0.33016 0.052136 3.7978 0.016551 -0.029049 0.40461 -0.067641 -0.3214 -0.42906 0.34667 -0.40094 -0.26477 -0.54929 0.20108 0.12476 0.53417 -0.10315 -0.57693 0.26055 -0.3884 -0.81348 -0.086581
five 0.21127 0.36828 0.49602 0.1788 0.43289 0.54778 -0.87517 -0.0041254 -0.27834 -0.40703 -0.50086 -0.68307 -0.53653 0.45692 0.79462 -0.73291 -0.053002 -0.30099 -1.0922 -0.15156 -0.04084 0.1819 0.75583 -0.09576 -0.52397 -0.95095 0.36684 -0.67003 -0.36539 -0.42036 3.9139 0.46919 0.048142 0.49178 1.0773 0.41012 0.37403 0.3022 -0.042142 0.15053 -0.90656 -0.027023 0.60757 0.29086 -0.22531 0.1413 -0.35703 -0.088937 -0.2961 -0.72497
called 0.65388 0.34707 -0.46744 0.23541 0.042322 0.25035 -0.2481 -0.52545 -0.20402 -0.0016557 0.045543 0.40545 -0.12725 0.37255 0.091869 0.24375 0.31824 0.13457 -0.021341 -0.080923 -0.17935 -0.33615 0.20144 0.29788 -0.1721 -1.7568 -0.57082 0.29939 -0.31451 -0.15088 3.1091 -0.68082 -0.9945 -0.3575 -0.36599 -0.21774 0.39993 -0.54434 -0.1259 0.29761 -0.042689 0.35754 -0.67812 -0.16238 0.44334 0.095137 -0.47481 -0.12054 0.1405 0.3396
1 -0.32313 0.89266 0.54943 0.59294 0.56707 0.37888 -0.036071 -0.18445 -0.6102 -0.27874 0.1987 -0.13458 -0.12 -0.80437 0.69032 -0.56864 -0.3787 0.022928 -1.6365 0.43987 0.2869 -0.99327 1.2016 0.40906 -1.0473 -0.80572 0.78073 -0.298 0.49566 -0.18523 3.6489 0.30559 -0.59888 0.84786 0.30806 -0.46975 0.51175 0.44654 0.86962 -0.83334 0.95202 -0.68141 0.52714 -0.9841 -0.68455 1.1837 0.16568 -0.34587 0.49963 0.47765
military 0.65888 -0.54381 0.19436 -0.30109 0.40142 -0.95937 0.4052 0.21374 -0.27085 -1.3078 0.082653 -0.43057 -0.36603 -0.030064 -0.6057 -0.3625 -0.45265 0.47363 -0.31675 0.12378 0.031183 0.45665 -0.40032 -1.1457 -0.8413 -2.6071 -0.35049 -0.50999 0.34219 1.0467 3.4014 -0.17959 -1.2548 -0.85564 0.34781 1.0215 -0.2268 -0.35951 -1.3895 0.50208 -0.36646 0.42108 0.87967 -0.62498 0.20222 -0.63936 -0.58163 0.88261 -0.84243 -0.037099
way 0.53662 -0.01189 -0.24985 -0.30536 0.33947 -0.10958 -0.44209 0.0099388 -0.1815 0.26726 -0.4314 0.30656 -0.68874 0.044483 0.11504 0.35505 0.72325 -0.2174 -0.046881 -0.63777 -0.12445 0.45086 -0.10405 0.16283 0.81381 -1.9463 -0.39676 0.29121 0.90593 -0.77543 3.6326 0.49683 -0.50868 -0.40184 0.0088379 -0.23548 -0.19416 0.43335 -0.17993 -0.15557 -0.34559 0.01032 0.04439 0.33125 -0.15722 0.28526 0.14313 -0.23625 0.063342 0.17774
used 0.53964 -0.13732 0.26655 -0.19516 -0.27085 0.61536 -0.4052 -0.83053 -0.38883 0.065268 0.5375 0.65439 0.41593 -0.09421 -0.29161 0.40866 -0.14244 0.45586 -0.47516 -1.0329 0.33194 -0.59274 0.43132 -0.0028016 -0.21245 -1.5564 -0.5771 -0.19148 0.51854 -0.79724 3.486 -0.60214 -0.69157 -0.63335 0.63745 0.82274 0.53723 0.31433 -0.2518 0.47469 0.70936 0.22682 0.065133 0.50814 0.54933 -0.099623 0.084533 -0.12983 -0.073696 -0.42038
much 0.36999 0.082841 0.16883 -0.50223 0.37935 0.13343 -0.32527 -0.17964 -0.40393 0.58149 -0.14505 0.1399 -0.1566 -0.60951 0.62075 0.5596 0.35677 0.25654 -0.33583 -0.82497 -0.11897 0.21829 0.27755 -0.38194 0.54374 -1.7705 -0.74366 0.40402 0.88709 -0.021368 3.7891 0.39953 0.51627 -0.48584 -0.052367 -0.28135 -0.60422 0.46096 0.11491 -0.49699 -0.34498 0.38645 0.14052 0.43843 -0.33583 0.13546 -0.12158 0.0053184 -0.50853 0.24986
next 0.39119 0.34992 0.22498 0.11417 0.31087 -0.52257 -0.92955 0.25335 -0.089138 -0.42545 -0.31354 -0.45698 -0.64173 0.31926 1.0812 0.61861 0.028539 -0.34201 -0.68273 -0.25298 0.43399 -0.2645 -0.057452 0.0082656 0.015807 -1.539 0.28407 0.14952 -0.074397 -0.18124 3.5567 0.63548 -0.76356 0.21495 0.23488 -0.30534 0.46327 0.64019 0.077317 -0.88417 -0.71713 -0.16503 -0.21991 -0.38886 -0.26111 0.58742 0.29305 -0.20466 -0.0059552 0.1746
game -0.90962 -0.16793 -0.28244 1.2006 0.35477 -0.054996 -1.2784 0.056494 -0.7309 0.65448 0.060675 0.084152 -1.3827 0.16752 1.1236 -0.52102 0.14212 -0.32316 -1.9348 0.055645 -0.89574 -0.31206 -0.0033612 0.082128 0.32966 -1.01 0.11907 -0.087034 0.99483 -1.5931 3.4081 1.0488 0.20391 -0.43841 0.1119 0.87173 0.62297 0.62392 -0.2883 -0.97984 -0.016959 -0.39827 -0.97197 0.59183 -0.57886 0.96217 0.76927 0.40248 -0.013602 0.18745
here 0.14094 0.68201 -0.50406 0.38316 0.63427 -1.1851 -0.46932 0.28639 -0.43216 -0.55399 -0.44542 -0.37547 -0.3705 -0.10563 1.1606 0.43494 0.38033 0.030184 -0.24547 -0.43203 -0.031259 0.50174 0.27714 0.12505 0.82877 -1.7273 -0.3644 0.30344 -0.17817 -0.012443 3.4775 0.51806 -0.46432 -0.13342 -0.22624 -0.24472 0.062998 0.50663 -0.31938 0.079926 -0.54474 0.19452 0.12387 -0.055269 0.65444 0.43451 -0.42384 0.11082 0.11009 -0.27094
? -0.14578 0.50459 0.047525 -0.46463 0.44249 -0.16772 -0.40334 -0.39223 -0.41543 0.27637 -0.63027 0.69033 -0.45441 0.0015845 1.312 0.52413 0.3738 0.28156 -0.0040563 -0.52664 -0.57061 0.36561 0.59174 0.34713 0.45009 -2.1454 -1.3795 0.307 1.4876 -0.96313 2.8403 0.50247 -0.86752 0.06413 -0.36376 -0.14019 0.11975 -0.045442 0.72682 -0.44447 -0.27226 0.1503 0.11489 0.71237 0.11341 0.22835 -0.040801 -0.41468 0.11054 1.1681
should 0.35145 -0.24155 0.0054776 -0.43396 0.498 -0.15624 0.085152 0.037574 -0.08182 -0.11312 0.30311 0.71108 -0.18012 -0.14026 0.72316 1.1194 0.54095 -0.44946 0.64814 -0.86225 -0.088763 -0.055229 0.49666 -0.14049 0.20234 -2.1223 -0.061711 -0.18884 0.15737 -0.52156 3.7028 0.73726 -1.0739 -0.63594 -0.18347 -0.46252 0.36886 0.19455 -0.068823 -0.32577 -0.46426 -0.096529 0.41884 0.53723 -0.065486 0.14923 -0.48415 0.46327 -0.029425 0.34362
take 0.62257 0.071858 0.024343 -0.12574 0.31062 -0.2258 -0.34277 0.50858 -0.13264 -0.068181 -0.21331 0.27151 -0.44914 0.076563 0.54888 0.58235 0.46806 -0.3486 -0.14855 -0.81118 0.26717 0.24443 0.016739 0.04569 0.23783 -1.9723 -0.067601 -0.50336 0.21409 -0.48434 3.5853 1.1371 -1.1428 -0.058785 0.2457 -0.16272 0.17293 0.18225 0.0188 -0.52325 -0.34459 0.035117 0.27834 0.18419 0.23106 0.13612 0.021502 0.18111 0.038953 0.23854
very 0.57049 -0.0077854 -0.70766 -0.31785 0.89493 -0.016128 -0.067149 0.15765 -0.49832 0.25845 0.10943 0.36728 -0.14843 0.063286 0.20832 0.4592 0.71781 0.22772 -0.0015349 -0.93093 -0.80048 0.46714 0.41571 0.17572 1.0876 -1.6116 -0.70943 0.83772 0.67081 0.18139 3.9899 -0.1027 0.439 -0.67926 0.11861 -0.20182 -0.081603 0.90739 -0.52258 -0.48426 -0.31326 0.10325 0.13036 0.35115 0.37593 0.064388 -0.2259 0.079125 0.12573 0.83939
my -0.27279 0.77515 -0.10181 -0.9166 0.90477 -0.070501 -0.47569 0.44608 0.1697 0.072352 -0.16306 0.86852 -0.76634 -0.016103 0.78492 0.2952 -0.74859 0.2099 0.65537 -0.62334 -0.43711 1.1854 0.47519 0.0093866 1.1377 -2.4394 -1.5619 0.49001 1.0985 -0.97371 3.4628 1.0408 -0.65138 0.57189 -0.12523 0.26705 0.16373 0.41105 0.7509 -0.77923 0.03638 -0.28609 -0.72365 0.63511 0.089441 -0.30133 0.36518 -0.73367 0.040383 0.26657
security 0.52125 -0.0033878 0.81485 0.049424 0.50668 -0.95911 0.31231 -0.45548 0.52073 -1.5376 -0.44826 -0.36463 -0.80871 0.25262 -0.16081 0.5605 -0.01623 -0.23822 0.83667 -0.031576 0.45841 0.70073 -0.44999 -0.563 -0.63356 -2.0531 0.55847 0.040415 0.15785 0.53227 3.4865 0.24928 -0.91953 -1.1876 -0.18295 0.76939 0.29916 -0.72577 -0.65898 0.39304 -0.3436 0.36399 0.85622 -0.3089 0.21141 -0.32681 -0.56317 1.2145 0.18532 0.06321
how 0.68938 -0.10644 0.17083 -0.37583 0.7517 0.00078149 -0.53102 -0.19903 -0.14419 0.12748 -0.28038 0.70723 -0.541 0.19625 0.96635 0.60519 0.40918 -0.031612 0.539 -0.87086 -0.20912 0.56853 0.65983 0.14583 1.0112 -2.0736 -1.1242 0.00059662 0.70332 -0.82608 3.4445 0.32984 -0.35324 -1.0335 -0.14753 -0.14874 -0.41246 0.33489 0.19841 -0.25478 -0.47193 0.066701 0.32777 0.68781 0.36428 0.21522 0.16494 0.41761 -0.22504 0.61412
public 0.034236 0.50591 -0.19488 -0.26424 -0.269 -0.0024169 -0.42642 -0.29695 0.21507 -0.0053071 -0.6861 -0.2125 0.24388 -0.45197 0.072675 -0.12681 -0.36037 0.12668 0.38054 -0.43214 1.1571 0.51524 -0.50795 -0.18806 -0.16628 -2.035 -0.023095 -0.043807 -0.33862 0.22944 3.4413 0.58809 0.15753 -1.7452 -0.81105 0.04273 0.19056 -0.28506 0.13358 -0.094805 -0.17632 0.076961 -0.19293 0.71098 -0.19331 0.019016 -1.2177 0.3962 0.52807 0.33352
early 0.35948 -0.16637 -0.30288 -0.55095 -0.49135 0.048866 -1.6003 0.19451 -0.80288 0.157 0.14782 -0.45813 -0.30852 0.03055 0.38079 0.16768 -0.74477 -0.88759 -1.1255 0.28654 0.37413 -0.053585 0.019005 -0.30474 0.30998 -1.3004 -0.56797 -0.50119 0.031763 0.58832 3.692 -0.56015 -0.043986 -0.4513 0.49902 -0.13698 0.033691 0.40458 -0.16825 0.033614 -0.66019 -0.070503 -0.39145 -0.11031 0.27384 0.25301 0.3471 -0.31089 -0.32557 -0.51921
several 0.92992 0.083859 -0.00040713 -0.059929 -0.52548 0.51386 -1.2543 -0.04047 -0.41758 -0.37798 -0.30974 -0.19047 -0.2039 0.14981 0.25646 -0.49809 -0.22428 -0.17415 -0.40491 -0.67571 0.50644 0.059368 0.64289 0.25023 -0.45868 -1.1539 -0.50283 -0.30815 -0.53284 -0.21486 3.8863 -0.19187 0.32527 -0.98921 0.45479 0.7402 -0.068988 -0.033446 -0.57015 0.57441 -0.38892 0.27663 0.097748 0.33904 0.35801 -0.17282 -0.66789 -0.024513 -0.60175 -0.84145
court -0.35445 -0.55181 -1.024 0.59384 0.57911 -0.061788 0.72901 1.2659 -0.13373 -0.34189 -0.45832 -0.32753 -0.50637 -0.40303 0.96671 0.23091 -0.60122 -0.9605 0.0088542 -0.43992 0.86799 0.53513 -0.3755 0.098895 -0.95862 -3.0575 0.13488 -0.27774 -0.87982 -0.4781 2.588 -1.0412 -0.76467 -0.83672 0.37049 -0.58154 0.94555 -0.0082917 0.051426 -0.37127 -0.15439 0.67224 0.57069 0.80539 -0.7087 0.28794 -0.62886 -0.47116 0.13036 -0.33523
say 0.538 -0.32312 0.68037 -0.45188 0.17821 -0.22154 -0.6907 0.0012973 -0.17651 0.37021 -0.30653 -0.010422 -0.22567 -0.14526 0.91416 0.62186 0.5173 -0.1694 0.47089 -0.69872 -0.46922 0.51316 0.33302 0.14935 0.20493 -2.5976 -1.1134 -0.047981 0.21307 -0.52961 3.0675 0.40748 -0.59142 -0.41317 -0.01431 -0.74191 -0.26384 -0.38352 0.25446 0.021919 -0.80087 0.47714 0.58133 0.73646 0.65852 -0.11711 -0.77649 0.70693 -0.17722 0.2904
around 0.77604 0.22584 0.45044 -0.70814 0.14959 -0.76201 -0.59769 -0.37123 -0.49107 -0.81828 -0.61185 -0.96962 -0.02998 -0.26391 0.69513 0.38294 0.067117 0.42452 -1.2652 -0.54603 0.65743 0.30119 0.63752 0.40919 0.29723 -1.1203 0.1117 0.49074 0.43661 -0.40743 3.6976 0.3907 0.10636 -0.035762 -0.4579 0.19091 -0.38336 0.060834 0.20348 0.60765 -0.19867 0.21351 0.31352 0.472 -0.23803 -0.12381 0.43955 -0.97437 -0.78565 -0.8177
10 -0.14751 0.55556 1.0764 0.044167 0.49217 0.31183 -0.62123 -0.28246 -0.4555 -0.37761 -0.23383 -0.75712 -0.19904 -0.19379 1.1632 -0.56376 -0.49566 -0.19437 -1.4987 0.1349 0.56518 -0.15299 1.1222 0.11022 -0.59064 -0.7489 0.77516 -0.62996 0.18706 -0.16483 3.7478 0.51149 -0.19912 0.46903 0.69338 -0.20723 0.47423 0.22966 0.53956 -0.12704 -0.29329 -0.15497 0.89544 -0.33169 -0.4892 0.29825 -0.10244 -0.3635 0.12941 0.18798
until 0.20025 -0.32821 -0.40859 -0.79438 -0.016211 -0.15642 -0.87742 0.79077 -0.72598 -0.84135 0.32721 0.16083 -0.39978 -0.16564 0.97777 0.75359 -0.58771 -0.18122 -0.86418 0.21439 0.93586 -0.27561 1.1309 0.13037 -0.26363 -1.5425 0.44697 0.11369 0.81079 0.50902 3.5276 -0.40359 -1.1329 -0.31116 0.10513 -0.11283 0.36168 0.73762 0.38905 -0.45252 -0.28996 -0.6103 -0.41276 -0.20891 -0.92793 0.52376 0.075897 -0.81873 -0.46464 -0.09077
set -0.087659 0.11144 0.1543 0.3051 0.40663 -0.017369 -0.15209 -0.13592 -0.14259 -0.050335 -0.32163 -0.32965 -0.7775 0.54234 0.71429 0.0045754 0.42766 -0.74396 -0.37613 -0.63296 0.51588 -0.078446 -0.2662 -0.164 -0.015405 -1.1246 0.15969 -0.3793 0.069653 -0.25449 3.6201 -0.05886 -0.6494 0.10255 0.058746 0.1753 0.63647 0.46642 -0.34624 -0.31667 0.011133 -0.032083 0.34644 -0.15786 -0.19963 0.50825 0.41812 -0.38405 -0.081924 -0.51
says 0.11797 0.21126 0.29075 -0.021211 0.78197 0.17333 -0.73111 -0.42497 0.34541 -0.046832 -0.0080294 0.51795 -0.71425 -0.31273 1.125 0.5228 0.47893 0.15827 0.46741 -0.30607 -0.23906 1.0427 -0.025154 -0.057812 0.6194 -2.1845 -0.31173 0.1252 -0.043755 -0.35049 2.4963 -0.25376 -0.29578 0.0041725 -0.51246 -0.51268 -0.26111 -0.078177 0.74577 -0.12326 0.077638 0.96181 0.3543 -0.58989 0.54949 -0.10072 -0.40962 0.17504 -0.32733 1.0853
market -0.0093193 -0.72787 0.4683 0.29756 0.42387 -0.98397 -0.80987 -1.0172 -0.012549 0.72708 0.34809 -0.066407 -0.60332 -0.18149 0.14072 1.2122 -0.30229 -0.16803 -0.26369 -0.60949 1.5426 -0.58742 -0.7123 0.078042 -0.26746 -1.3635 -0.27867 0.30661 0.60558 0.8493 3.7764 0.28187 1.2976 0.13246 -0.082881 -1.1496 -1.0379 0.24816 0.31573 -0.52777 -0.65206 -0.013762 0.34965 0.030161 0.82582 0.25493 0.088389 0.38069 0.84202 0.38185
however 0.43833 -0.15784 -0.12393 -0.11901 0.14659 0.35156 -0.45865 0.18337 -0.63247 -0.11755 0.59893 0.346 -0.46169 -0.58537 0.41869 0.53485 -0.056069 -0.42462 -0.45327 -0.32637 -0.16922 -0.31311 0.44623 -0.13493 0.36838 -1.5683 -0.30225 -0.093721 -0.04807 0.37704 3.4781 -0.27603 0.064955 -0.81474 0.1966 -0.29855 0.31998 0.24164 -0.5128 -0.10399 -0.11611 0.025575 -0.29849 -0.0033247 -0.20456 -0.079099 -0.38462 0.12374 0.14642 -0.15032
family 1.1636 0.90386 -0.74277 0.49272 1.88 0.9285 -1.0429 0.01343 -0.51903 -0.68762 0.0083396 0.50754 0.51792 -0.75577 1.0241 0.1761 -0.91889 0.21455 0.19232 0.19562 0.0044282 0.40701 -0.3812 0.51286 0.14278 -1.4652 -0.55194 -0.8362 0.41877 0.40793 2.5335 -0.20787 0.088761 -0.10973 0.52074 0.026259 -0.65515 -0.1425 0.44071 -0.047796 -0.23276 0.17212 -0.16844 0.60122 0.47156 0.11336 -0.96031 -1.3412 -0.021467 0.049217
life 0.51491 0.88806 -0.71906 -0.5748 0.85655 0.52474 -0.31788 -0.20168 0.17936 0.51999 -0.11527 0.59296 -0.3468 0.052568 0.87153 -0.036582 -0.056057 0.08516 0.036249 0.23403 0.073175 1.1394 -0.17921 -0.034245 0.69977 -1.6516 -1.106 -0.44145 0.77042 0.23963 3.1823 -0.020451 -0.056117 -0.69918 -0.19543 0.19492 -0.36403 0.053196 0.26225 -0.29054 -0.64883 -0.057846 0.21646 0.40237 -0.1413 -0.015453 -0.11988 -0.99837 -0.066328 0.13118
same 0.24133 0.39489 -0.053433 -0.13301 0.66102 0.72613 -0.29715 -0.44377 -0.38728 -0.040131 0.24817 -0.03752 -0.30168 -0.19275 0.62111 0.080877 -0.381 0.057489 -0.5805 -0.55155 -0.098621 0.0098178 0.13969 0.11037 0.18329 -1.6027 -0.64303 0.08079 0.30197 -0.18902 3.7301 -0.0080466 -0.20651 -0.44873 0.24951 -0.24429 0.36645 0.12684 -0.125 -0.11776 -0.060836 -0.00089291 -0.1146 0.27976 -0.48725 -0.014575 0.051452 -0.13944 0.087574 0.20583
general -0.23543 -0.16905 -0.32014 0.51154 0.95483 -0.95295 -0.24693 -0.22203 -0.64937 -1.5415 0.44765 0.78026 -0.79942 -0.55259 0.067922 -0.11102 -0.67165 -0.30013 -0.067859 -0.45956 -0.071381 -0.54139 0.0057019 -0.98482 -0.64737 -1.5912 -0.2497 -0.74685 -0.63462 1.1995 2.8192 -0.27006 -0.73805 -0.95883 0.32723 -0.4391 0.031535 0.19681 0.22045 0.81237 -0.45998 0.69578 -0.44039 -0.67001 0.022996 0.073442 -0.83098 0.44527 0.15325 1.2093
left 0.46783 -0.035872 0.41065 -0.4438 0.58944 0.22964 -1.1107 0.87497 -0.72342 -0.91589 -0.17989 -0.38281 -1.0384 0.47202 0.23037 -0.039563 -0.079483 -0.50856 -0.72968 0.19254 -0.5322 0.65468 0.25873 -0.12893 0.21562 -1.4202 0.63648 0.52826 0.28329 -0.073296 3.2336 0.22421 0.031033 0.015244 -0.28903 0.54683 0.01121 0.21479 0.96489 0.10511 -0.20664 0.21379 -0.45599 0.23589 -0.27467 0.21216 -0.097545 -0.51355 -0.11455 -0.84802
good -0.35586 0.5213 -0.6107 -0.30131 0.94862 -0.31539 -0.59831 0.12188 -0.031943 0.55695 -0.10621 0.63399 -0.4734 -0.075895 0.38247 0.081569 0.82214 0.2222 -0.0083764 -0.7662 -0.56253 0.61759 0.20292 -0.048598 0.87815 -1.6549 -0.77418 0.15435 0.94823 -0.3952 3.7302 0.82855 -0.14104 0.016395 0.21115 -0.036085 -0.15587 0.86583 0.26309 -0.71015 -0.03677 0.0018282 -0.17704 0.27032 0.11026 0.14133 -0.057322 0.27207 0.31305 0.92771
top -0.66508 0.78362 0.74452 0.68549 0.648 -0.52191 -0.52026 0.2572 -0.13776 -0.66091 -0.43022 -0.30704 -0.88624 1.4324 0.31653 -0.44287 0.30271 -0.013176 -0.365 -0.62942 -0.0053265 -0.1942 0.6366 0.3765 -0.98731 -1.6796 -0.31415 -0.054224 -0.90695 0.17036 3.4054 0.38219 0.13579 0.38695 0.30863 0.23611 -0.4158 0.66128 -0.022794 -1.0259 0.036685 0.52651 0.17759 -0.24752 0.50828 0.18699 -0.13874 0.25994 0.0064557 -0.19891
going 0.014212 -0.18011 0.23478 -0.25038 0.26816 -0.54887 -0.74436 0.52034 -0.28571 0.15376 -0.55916 0.10423 -1.0179 0.010634 0.9528 0.51811 0.78624 -0.20099 -0.28816 -0.65735 0.018307 0.3193 0.34456 0.26516 0.72061 -1.8699 -0.25384 -0.0030076 1.2203 -0.92019 3.4057 1.1351 -0.58406 -0.12611 -0.035017 -0.29941 0.031475 0.33883 0.3891 -0.42999 -0.85264 -0.31751 -0.089163 0.53176 0.043773 0.060998 0.24762 -0.16679 0.061595 0.69927
number 0.33614 0.35956 0.97398 -0.11536 0.26715 0.52664 -0.28079 -0.15934 -0.018939 -0.33067 0.10573 -0.53051 0.031862 -0.080079 0.82261 -0.7917 -0.10958 -0.46814 -0.39095 -0.64602 -0.021653 -0.76659 0.79564 0.59753 -0.12686 -0.69666 -0.88445 -1.0733 -0.3196 0.12422 4.0137 0.14167 0.79684 -0.4697 0.70954 0.15874 0.64932 -0.014985 -0.67939 0.29073 -0.2803 -0.096077 0.75959 0.44819 -0.05046 -0.19157 -0.42044 0.080226 -0.23491 -0.22272
major 0.2492 0.37003 -0.12283 0.9356 -0.33465 0.10462 -0.60417 0.25293 0.19677 -0.20179 -0.17339 0.012523 -0.949 0.0035561 -0.097554 -0.42411 0.31734 -0.22621 -0.50354 -0.040819 0.50298 -0.95244 -0.38308 -0.19784 -0.57981 -1.3302 -0.53875 -0.80585 -0.096609 0.66551 3.8168 0.11813 0.63227 -0.45213 0.25649 0.25151 -0.20992 0.049896 -0.18808 0.56178 -0.8935 0.19163 -0.27082 -0.3413 0.20608 0.27465 -0.59125 0.60125 -0.12151 0.15024
points -1.4084 0.48559 1.1318 0.7164 1.5125 -0.002849 -0.40278 -0.53612 -1.2053 0.24432 -0.072353 -0.86205 -1.1662 -0.9739 0.36076 -0.26857 0.075069 -1.7385 -1.7928 -0.60912 -0.15757 0.13838 0.34542 -0.6568 0.12874 -0.51258 1.1478 -0.42285 0.32655 -1.0929 2.9883 1.0055 0.73572 -0.18747 1.0734 -0.87546 -0.12114 0.71965 0.2494 -0.083012 -0.11664 -0.11342 1.1177 -0.049373 -0.87351 0.080255 1.031 0.32077 0.82135 -0.48424
six 0.29281 0.31322 0.58541 0.044983 0.38666 0.60109 -0.87665 0.09606 -0.19744 -0.49457 -0.41672 -0.75916 -0.6508 0.52929 0.6589 -0.79883 -0.1297 -0.28493 -1.2256 -0.22497 -0.011196 0.2396 0.77621 -0.14746 -0.62975 -0.93334 0.55396 -0.54297 -0.3178 -0.30144 3.8218 0.45976 -0.07032 0.44685 1.1156 0.41392 0.50005 0.19087 -0.14513 0.046651 -0.7588 -0.15138 0.56228 0.16382 -0.22547 0.11267 -0.32517 0.061608 -0.37181 -0.66733
bank 0.66488 -0.11391 0.67844 0.17951 0.6828 -0.47787 -0.30761 0.17489 -0.70512 -0.55022 0.1514 0.10214 -0.45063 -0.33069 0.056133 1.2271 0.55607 -0.68297 0.037364 0.70266 1.9093 -0.61483 -0.83329 -0.3023 -1.1118 -1.55 0.2604 0.22957 -1.0375 -0.31789 3.5091 -0.25871 1.0151 0.65927 -0.18231 -0.75859 -0.30927 -0.91678 1.0633 -0.66761 -0.37464 -0.29143 0.65606 -0.44642 -0.075495 -1.0552 -0.60501 0.73582 1.0139 -0.27749
2 -0.11098 0.86724 0.78114 0.62927 0.47444 0.56995 -0.036589 -0.36277 -0.75835 -0.23177 -0.033863 -0.13799 -0.27332 -0.49268 0.65304 -0.65874 -0.37598 -0.035175 -1.751 0.4251 0.27823 -0.70469 1.4309 0.47407 -0.7927 -0.59344 0.72797 -0.46763 0.42751 -0.54557 3.6055 0.3723 -0.49394 0.7213 0.38648 -0.12074 0.52277 0.11091 0.76881 -0.71368 0.73664 -0.5564 0.56538 -1.1565 -0.39394 1.3017 0.28281 -0.61752 0.59103 0.28649
use 0.36404 -0.16619 0.28584 -0.17042 -0.42253 0.43921 -0.2348 -0.89034 0.063375 0.37835 0.41151 0.72865 0.72612 -0.081949 -0.18455 0.58287 -0.055214 0.19534 -0.022018 -1.2055 0.47209 -0.53655 0.17969 0.056589 -0.19033 -1.7427 -0.19718 -0.44248 0.85523 -0.51624 3.7482 -0.094815 -1.1104 -0.73457 0.36396 0.62193 0.35603 0.14707 -0.42021 0.16994 0.74747 0.14756 0.41393 0.80217 0.58067 0.10242 0.1147 0.40129 -0.086234 0.045505
members 0.49879 0.14721 0.39631 -0.41883 0.79474 0.17991 -0.4291 0.066655 -0.56311 -0.94127 0.071794 -0.2263 0.080748 0.6171 0.14129 -0.45394 0.037488 0.17683 0.20594 -0.68941 0.060915 0.30922 0.86454 0.44407 -0.90161 -1.3364 -0.01834 -1.0262 -1.5825 -0.14619 3.3926 0.45327 -0.879 -0.63592 -0.047161 -0.3685 0.28024 -0.99171 -0.3409 0.27373 -0.66733 -0.23238 -0.022898 0.31859 0.21816 -0.24162 -1.4959 0.080373 -0.77257 -0.26397
each 0.42553 0.56703 0.35364 0.05116 1.3488 0.6713 -0.073751 -0.093801 0.065372 -0.40627 -0.20479 -0.1505 0.13177 0.21507 0.48418 -0.40727 -0.11551 0.072009 -0.53588 -1.1379 0.20057 -0.32165 0.79151 0.34662 -0.044049 -0.962 0.17347 -0.075961 -0.036888 -0.92744 4.0039 0.66211 -0.11491 -0.051017 0.27514 0.28659 0.26112 0.28538 -0.090535 -0.10771 0.24407 -0.056039 -0.085993 0.46912 -0.4861 -0.19245 0.35422 -0.10982 -0.48562 -0.18198
area 0.87797 0.20571 -0.12058 -0.010709 -0.053455 -0.68496 -1.2214 -0.32873 0.57296 -1.1168 -0.12084 -1.3698 0.58411 -0.94934 -0.7575 0.61905 0.85446 0.29599 -0.91012 0.41647 -0.18308 -0.099543 -0.34984 0.6359 -0.35521 -0.93343 -0.044097 0.71133 0.43015 -0.3832 3.7452 -0.42756 0.42294 -0.93751 0.47626 0.42313 -0.10811 -0.01229 0.30669 1.0182 -0.48771 0.25101 0.36161 -0.089203 -0.56762 -0.1957 -0.22157 -0.49112 0.15444 -0.44166
found 0.95528 -0.01161 0.074285 0.12251 0.70818 0.74145 -0.81545 -0.23535 0.53243 -0.32104 0.32033 -0.24647 0.27388 -0.21989 0.64789 0.16764 -0.082653 -0.19715 -0.52546 -0.30905 -0.58658 0.29096 0.86158 0.13299 0.11463 -1.6544 -0.65505 0.61209 -0.10833 -0.39034 2.9539 -1.21 0.35207 -0.97542 0.45638 0.33947 0.13437 0.32874 0.58773 0.1244 -0.027672 0.30578 0.67546 0.62237 0.5234 -0.020469 -0.42501 -0.26861 0.27789 -0.71997
official -0.21603 0.33854 -0.045154 0.7077 0.52752 -0.77189 -0.37859 0.01496 0.44067 -1.0734 0.25733 -0.27296 -0.26133 0.077519 0.89039 -0.18416 -0.73166 -0.11566 0.28548 0.30915 0.26044 0.11257 0.25141 -0.28005 -0.092009 -2.1169 -0.31785 0.13818 -1.063 0.40867 3.2536 -0.37485 -0.47284 -0.21328 -0.26352 0.1336 0.61055 -0.5932 -0.55243 0.4227 -0.12348 0.39028 -0.088546 -0.75717 0.21848 -0.60385 -0.9513 1.5525 0.65175 -0.43781
place 0.31501 0.56659 -0.60372 0.25178 0.83388 -0.41066 -0.43942 0.47005 -0.18302 -0.59004 -0.34368 -0.47128 -0.53103 -0.1374 0.59852 0.19232 0.62629 -0.33028 -0.9268 -0.32578 0.17046 -0.2916 0.086514 0.6519 -0.12978 -1.21 -0.24728 0.16979 0.54571 -0.32007 3.3198 0.34535 -0.72169 -0.28588 0.11319 0.1789 0.33455 0.86765 -0.075587 -0.36334 -0.098511 -0.43997 -0.058674 -0.12686 -0.19925 0.71719 0.10559 -0.65819 0.49954 -0.31123
go 0.14828 0.17761 0.42346 -0.31489 0.32273 -0.72413 -0.78955 0.49214 -0.20693 -0.00055088 -0.47877 0.28853 -0.57376 0.27217 1.1129 0.57808 0.69321 -0.28652 -0.054545 -0.61826 0.17227 0.29263 0.38184 0.62186 0.55461 -1.7411 -0.28802 -0.1714 0.74743 -1.0135 3.3596 1.137 -1.0028 0.17685 -0.0061795 -0.063491 0.19077 0.044046 0.38228 -0.41607 -0.50359 -0.083803 0.17508 0.4042 0.077324 0.17415 0.12541 -0.2182 0.12971 0.32953
based 0.44515 0.14297 -0.31849 0.93227 0.15758 0.10426 -0.86868 -1.0764 0.55314 0.30039 0.50631 0.014296 -0.31297 -0.28746 -0.57734 0.033763 -0.22912 0.45513 -0.57208 0.12396 0.76135 0.20192 -0.31061 0.27998 -1.039 -1.6102 -0.96987 -0.50075 -0.68246 -0.13174 3.2179 -0.80151 -0.12665 -0.67749 0.35736 -0.91313 -0.55365 -0.070563 0.20915 0.11336 0.66136 -0.087329 0.41196 -0.080373 -0.061894 0.38201 -0.21459 0.86345 -0.11521 0.54568
among 0.26623 0.46052 0.16411 -0.15575 0.4599 0.57428 -0.71595 -0.31793 -0.38352 0.14023 -0.1244 -0.43071 0.0036842 -0.078981 0.22799 -0.4386 0.14211 -0.362 -0.092919 -0.68458 -0.26686 0.051365 0.48439 0.24969 -0.26238 -1.1964 -0.80402 -0.87705 -0.5582 0.44329 3.3812 0.8488 0.54091 -0.87004 0.12037 -0.34844 -1.0354 -0.18493 -0.34795 0.1529 -0.75519 0.34175 0.38023 0.60987 0.71856 0.28481 -0.72253 0.05035 -0.52179 -0.62385
third -0.29329 0.24741 0.38114 0.66685 0.828 0.60294 -0.91257 0.52368 0.14178 -0.30512 0.14389 -0.6499 -1.1039 0.2591 0.51173 -0.69929 -0.04061 -0.87886 -1.2485 0.19964 -0.25412 -0.58236 -0.31967 0.041768 0.088083 -1.3633 0.26619 -0.66122 -0.053167 -0.09926 3.3406 0.24938 0.11115 0.66586 0.4321 -0.30615 0.44014 0.80759 0.017952 -0.51661 -0.25567 -0.26593 -0.16342 -0.53087 -0.62928 0.29726 0.28643 -0.36534 0.26795 -0.17126
times -0.39921 0.63609 0.3401 -0.14305 -0.11966 -0.4832 -0.87891 -0.19646 -0.42128 -0.23169 -0.50591 -0.093337 -0.30098 -0.14887 1.2242 -0.11392 -0.59522 -0.48003 -0.98778 0.033121 0.17605 0.2695 0.96337 0.25842 0.44454 -1.4805 -0.47694 0.040743 0.15592 0.23329 3.3342 -0.1008 0.85134 -0.29978 -0.14765 -0.37207 0.093149 0.30571 -0.036654 0.12316 0.012305 0.43128 0.4405 0.58298 -0.39951 0.21648 -0.13706 -0.01493 -0.19099 0.24173
right -0.31905 -0.09507 -0.049458 -0.45461 0.81447 0.5573 -0.37148 0.22142 -0.18506 -0.058731 0.19556 0.25934 -0.92544 0.60346 -0.11877 0.33422 0.5861 -0.93036 0.057848 -0.3782 -1.1279 0.11801 -0.26057 0.043562 0.25741 -2.2502 0.14761 0.43313 0.6941 -0.94411 3.5944 0.47921 -0.61145 0.16474 -0.68397 -0.091051 0.39399 0.1769 0.33553 -0.13054 0.12659 0.26288 -0.47432 0.79129 -0.75714 -0.117 -0.093022 -0.23004 0.081364 -0.035147
days 0.62236 0.1973 0.0023326 -0.44924 0.084905 -0.33628 -0.90642 0.62154 -0.20657 -0.20043 -0.6269 -0.64429 -0.31616 0.23314 1.2348 -0.080113 -0.7382 -0.3497 -0.97589 -0.046964 0.29777 0.68288 0.87876 -0.28921 0.1456 -1.411 -0.11301 0.2132 0.49548 0.38685 3.397 0.40639 -0.54343 -0.00037414 0.44268 -0.1015 0.37693 0.047623 0.044414 0.10038 -0.99794 0.2082 0.063226 0.12436 -0.059387 0.046682 -0.22335 -0.22082 -0.40414 -0.18502
see 0.31369 0.73732 0.27501 -0.51882 0.39102 -0.84733 -0.22596 -0.3745 -0.56751 -0.10444 -0.07865 0.50972 -0.44274 0.038197 0.759 0.98204 0.26128 -0.62279 -0.064897 -0.52966 -0.30045 -0.18522 0.28722 0.36005 0.40381 -1.7122 -1.2329 0.12507 0.46661 -0.36031 3.1632 0.56363 -0.46641 -0.48497 -0.10749 -0.47382 0.10153 -0.34646 0.28584 -0.20812 -0.44613 0.27223 0.2287 0.30833 0.1775 0.3363 0.38842 -0.25642 0.1355 0.24894
best -0.91572 0.60345 -0.31077 0.28433 0.5461 -0.0039229 -0.9464 -0.3021 0.07115 0.82385 -0.16949 0.41054 -0.48622 0.61483 0.70468 -0.60032 0.89382 0.11781 -0.77831 -0.52206 -0.10077 0.38392 0.27892 0.37202 0.49374 -1.1495 -1.1505 -0.72089 -0.03809 -0.45699 3.3425 0.5666 0.00088944 -0.2003 0.53662 0.28478 -0.083822 0.97535 -0.35985 -1.0818 -0.051555 0.30453 0.0047155 -0.25214 -0.35151 0.26135 0.19998 -0.056032 0.074988 0.76092
held -0.009173 0.51182 -0.53914 0.50699 0.52483 -0.59976 -0.57694 0.53411 -0.48935 -0.76874 -0.16864 -0.89407 -0.41777 0.0034687 0.42252 0.071424 -0.17026 -0.29842 -0.78902 0.042676 0.72038 0.32576 0.36559 -0.074632 -0.76986 -1.4719 0.21902 -0.2934 -0.78126 0.023716 2.9611 0.26948 -0.95631 -0.45146 0.27115 -0.23076 0.35717 0.41122 -0.49945 0.03909 -0.52455 -0.29506 -0.033977 -0.0094702 -0.062505 -0.012143 -0.674 -0.3321 -0.20794 -0.79844
business 0.023693 0.13316 0.023131 0.49833 0.026874 -0.43252 -1.1364 -0.82001 0.22388 -0.032119 -0.069651 0.39857 -0.58275 0.095008 -0.023643 0.23237 -0.42441 0.65709 0.57802 -0.51602 1.8253 0.12951 -0.61773 0.39281 -0.35754 -1.6778 -0.45201 -0.47075 0.19487 0.35828 3.6034 0.32865 0.47288 -0.33787 -0.46234 -0.51628 -1.3755 0.70789 0.4648 -0.16186 -0.0961 -0.28523 0.30047 0.50902 0.081356 -0.015639 -0.51021 0.34585 0.24201 0.82237
does 0.2293 0.34231 0.059817 0.083003 0.57685 0.28853 -0.011266 -0.17846 0.16948 0.32735 0.14048 0.8287 -0.27632 -0.14559 0.8733 1.0744 0.52941 0.0066567 0.41425 -0.76076 -0.44428 0.03715 0.018767 0.34844 0.48343 -2.1882 -0.71822 0.11967 0.73301 -0.74122 3.1152 0.26265 -0.82392 -0.48308 -0.26423 -0.49872 0.1384 -0.18218 0.24401 -0.53377 0.055773 0.36048 -0.10413 0.32412 -0.11662 0.2212 0.19864 0.19143 -0.041528 1.0861
own 0.27848 0.079579 -0.10584 -0.38162 0.46071 0.56455 -0.7193 -0.22662 0.12271 0.24965 -0.13608 0.65377 -0.63547 0.010398 0.056358 -0.12872 -0.033681 -0.1146 0.33459 -0.64033 0.41771 0.43189 -0.18595 -0.11354 0.080351 -1.7492 -1.037 -0.37701 0.38214 -0.24203 3.5389 0.46803 -0.41399 -0.5427 -0.21175 0.48245 -0.34914 0.15805 -0.2137 -0.50219 0.24979 -0.22019 -0.28683 0.43822 -0.34483 -0.0015556 -0.27295 -0.096195 -0.071975 -0.22772
came 0.03413 -0.1529 -0.087984 -0.21692 0.29229 -0.072007 -1.0252 0.50136 -0.57328 -0.10813 -0.18637 -0.27509 -0.80462 -0.15915 0.56122 -0.18315 -0.24854 -0.60133 -0.98713 -0.08832 0.033427 0.29101 0.071743 -0.43179 0.2404 -1.9052 -0.1955 0.068605 0.019887 -0.10984 3.0229 0.24949 -0.28191 -0.0098004 0.1651 -0.15466 0.11498 0.25807 -0.029927 -0.21309 -0.35143 0.32539 -0.37124 -0.43276 0.034539 0.14591 -0.15846 -0.13913 -0.071206 -0.46056
law -1.2328 -0.11042 -0.77951 -0.50614 -0.06815 0.69457 0.18967 -0.76766 0.0054416 -0.36045 -0.16309 0.59114 -0.14221 -0.33803 0.22356 0.0015343 -0.012043 -0.59315 0.6207 0.087477 0.7218 0.31269 -0.49196 -0.14968 -0.52249 -2.9321 0.13136 -1.0542 -0.25628 -0.27729 2.8322 -0.80952 -1.2425 -1.3874 -0.055187 -0.48155 0.17897 -0.22712 0.52925 0.47739 -0.55841 0.25676 1.0353 1.0491 -0.95648 -0.033834 -0.43219 0.10342 0.20543 0.36536
power 0.045752 0.061422 1.1936 0.38875 -0.16884 0.36553 0.51774 0.047422 -0.42848 0.69177 0.31957 0.28587 -0.45329 0.1207 -0.69699 0.57517 0.20169 0.74569 -0.027183 -0.61737 0.26269 -0.39027 -0.37649 -0.69831 -0.05726 -1.9656 0.095767 -0.52099 0.87712 0.88263 3.54 0.39965 -0.74971 -0.49914 -0.019178 0.2373 -0.4485 0.040627 -0.020372 0.18229 -0.24345 0.45404 -0.62969 0.13692 -1.0847 0.79392 -0.73323 -0.45858 -0.30716 -0.73481
think -0.1166 -0.010887 0.044444 -0.39349 0.77743 -0.35689 -0.42073 -0.12338 -0.58818 0.3166 -0.3084 0.4558 -0.83117 0.0231 0.88091 0.71288 1.1223 0.13017 0.017489 -0.82336 -0.65853 0.63098 0.34655 0.25429 0.9928 -2.2232 -1.1191 0.26796 0.71472 -0.76952 3.0569 0.75397 -0.34325 -0.60568 -0.4142 -0.8 -0.17019 0.35416 0.29577 -0.51743 -0.48561 0.0161 0.10267 0.52783 0.32212 0.26552 -0.23728 0.44057 0.0064518 1.2454
service 0.13409 0.68926 0.45086 0.052204 -0.30604 -0.5801 -1.128 -0.030769 1.0378 -1.3936 0.18124 0.38504 0.27184 -0.1356 -0.19343 -0.40629 -1.5941 0.33679 -0.035998 -0.10354 1.0248 -0.036901 -0.58559 0.51458 -0.1289 -1.6363 0.042835 -0.71684 0.23651 0.34811 3.5559 0.38361 0.087215 -0.49308 -0.24096 0.24726 0.59281 -0.37768 -0.23602 0.2935 0.93289 -0.24058 0.24401 0.23104 -0.62022 -0.16006 -0.40435 0.29695 -0.006097 0.94897
children 0.53888 0.50514 -0.045316 -1.3606 0.6785 1.4193 -0.8518 -0.66912 0.45732 -0.15827 -0.037624 -0.20835 0.54524 -0.64056 1.2267 -0.26497 -0.45656 0.27901 0.3855 0.14437 0.0026343 1.7084 0.56702 0.60751 0.43173 -1.1765 -0.45223 -0.98725 0.19464 -0.64467 3.1015 1.0881 -0.17687 -0.81104 0.28289 0.65915 0.38012 -0.27123 0.6249 -0.054019 -0.6409 0.10671 0.79348 0.10989 0.66735 -0.065263 -0.63952 -1.249 -0.034498 0.18429
bush -0.018496 0.43918 0.64758 -0.51309 0.28524 0.1538 -0.56035 -0.20884 -0.36821 -0.55161 -1.8156 -0.19681 0.043052 0.12444 0.042305 0.21085 -0.20618 -0.6336 0.45676 -0.37628 -0.18201 0.22408 0.61095 -1.202 0.61463 -2.8479 0.17599 0.76645 0.062976 0.041864 2.3945 0.38053 -1.3147 -0.78874 -0.44219 -0.83314 -0.26164 0.29377 -1.2238 -0.89309 -0.6539 0.56785 -0.41277 -0.32936 0.22573 0.34811 -0.79977 0.67277 -0.36498 0.70766
show -0.034772 0.64145 -0.37352 0.20804 0.20488 0.10238 -0.90995 -0.57641 0.01479 0.45589 -0.15513 -0.18886 -0.44949 0.39482 1.1552 0.15602 -0.071006 0.056749 -0.66921 -0.43072 0.78598 0.67878 0.54741 0.23433 0.18783 -1.1221 -1.3257 0.45237 0.069194 -0.47916 3.0153 0.8077 0.097056 -1.065 -0.49647 0.051322 0.38649 -0.25782 -0.76952 -0.70461 -0.15052 0.36085 -0.97656 -0.58116 0.081565 -0.41565 -0.16104 -0.23396 -0.28784 0.98359
help 0.88189 -0.07336 0.7171 -0.39262 0.24097 -0.13752 -0.61264 0.32193 0.4621 0.10509 0.11496 0.67571 0.0030444 -0.13679 0.052875 0.47073 0.58707 -0.30466 0.71892 -0.37503 0.1695 0.29757 -0.22053 -0.27809 0.29786 -1.7792 0.14847 -1.1411 0.38335 -0.65889 3.718 1.5077 -0.98004 -0.52614 -0.083689 0.57144 -0.62119 -0.0444 0.68299 -0.64181 -0.45596 -0.011288 0.44917 -0.39481 0.60444 0.25558 -0.072523 0.1774 -0.15583 0.11012
system 0.33811 -0.23768 0.77132 0.20897 -0.96102 0.21753 0.069671 -0.79317 0.35003 -0.18187 0.80426 0.6604 0.0062125 0.4198 -0.83985 0.39408 -0.57603 0.69031 0.26979 -0.26878 -0.11203 -0.85813 -0.82293 -0.01665 0.10325 -1.8031 -0.1156 -0.26856 0.31724 0.17981 4.0673 -0.36699 -0.42908 -1.0838 -0.20061 0.49008 0.46461 -0.12059 0.23733 -0.097047 0.01566 -0.37673 0.065233 1.0646 -1.0214 0.30089 0.33471 0.23508 0.40676 0.11479
support 0.36274 -0.033799 0.73714 -0.41275 0.17885 0.28384 -0.24078 -0.26094 -0.059845 -0.04074 0.076052 -0.10649 0.2413 -0.27102 -1.0219 -0.14183 0.15021 -0.31005 0.7186 -0.42428 -0.049672 0.1063 -0.25183 -0.61771 -0.10167 -1.73 0.38166 -0.72861 -0.46378 0.56633 3.7755 0.7574 -0.99729 -0.73075 -0.32682 -0.23346 -0.12167 -0.1636 -0.7929 -0.63738 0.20036 -0.033997 -0.3645 -0.38151 -0.12014 0.019369 -0.89391 0.51591 -0.2976 0.067125
series 0.28701 0.54684 -0.32982 1.1071 -0.63715 0.76379 -0.87335 -0.60057 -0.28778 0.050657 -0.79246 0.46241 -1.7375 0.78102 1.0199 -0.96513 -0.079294 0.0091858 -1.5801 -0.025189 0.48704 -0.1385 0.59905 0.39975 -0.0062023 -0.50743 -0.91489 -0.53085 0.05442 -0.33023 3.2183 0.14428 0.29285 -0.30581 0.24283 0.6867 0.36399 -0.5543 -1.4235 -0.63264 -0.501 -0.23401 -0.68351 -0.43994 -0.28586 0.68027 0.41442 0.088428 -0.21883 0.13339
play -0.73571 0.19937 -0.89408 0.36406 -0.20246 -0.034324 -0.63138 0.76669 -0.94343 0.65883 0.049478 0.55608 -1.2809 0.44575 0.73791 0.014728 0.80956 -0.35516 -1.0248 -0.13845 -0.47632 0.32001 0.35023 0.77794 0.60233 -1.2321 0.043144 -0.41347 0.34533 -1.3093 3.4681 0.9882 0.038253 -0.33672 0.30999 0.6331 0.30798 0.68528 -0.21989 -0.77505 -0.036884 0.051738 -0.25442 -0.063405 -0.20665 0.91281 0.80133 -0.075279 -0.44448 0.47437
office 0.25481 0.054909 0.32375 0.21429 0.48137 -0.75424 -0.78087 -0.29439 0.024477 -1.2903 -0.69475 -0.33993 -0.3687 -0.0011398 0.51126 0.27465 -0.86396 0.070632 0.62489 -0.043111 1.0666 0.24161 -0.536 -0.31515 -0.74103 -2.104 0.024429 0.43665 -0.68109 0.19043 2.8783 -0.25616 -0.56676 -1.1168 -0.29901 0.29706 0.40172 0.21947 0.64514 -0.18449 -0.28797 0.59847 -0.27569 -0.0049195 -0.7356 -0.15342 -0.99148 -0.045975 0.72543 0.41688
following 0.39504 0.17819 -0.58475 0.053913 -0.3867 0.27252 -0.57967 0.41618 -0.40824 -0.38266 0.19381 -0.2418 -0.86562 -0.41553 0.67027 -0.10716 -0.77751 -0.92425 -0.88645 0.37344 0.47515 -0.38801 0.27171 -0.22085 -0.34034 -1.2374 -0.0046157 -0.27729 -0.26562 0.91297 3.611 -0.16625 -0.20335 -0.59424 0.27874 0.1012 0.52864 -0.25221 -0.5081 -0.14184 -0.43874 -0.25075 -0.61961 -0.3705 -0.26175 0.11614 0.0738 0.2144 0.23219 -0.60179
me -0.14525 0.31265 0.15184 -0.63708 0.63553 -0.50295 -0.23214 0.52892 -0.58629 0.53935 -0.3055 1.0357 -0.77989 -0.19387 1.2215 0.24521 0.26144 0.22439 0.15584 -0.79146 -0.65262 1.3211 0.76618 0.38234 1.4453 -2.2643 -1.1505 0.50373 1.2651 -1.5903 3.0518 0.84118 -0.69543 0.29985 -0.49151 -0.22312 0.59528 -0.076347 0.52358 -0.50134 0.22483 0.01546 -0.088005 0.21282 0.28545 -0.15976 -0.16777 -0.50895 0.14322 1.0118
meeting 0.68677 1.006 -0.87863 0.51321 0.61462 -1.0877 -0.45431 0.352 -0.62553 -0.99612 -0.45212 -0.45954 -0.51827 0.74167 0.60872 0.48564 -0.14251 -0.64726 0.34616 -0.086025 0.94095 0.13241 0.32838 -0.17121 -0.10886 -1.3884 0.74426 0.13702 -1.5369 0.53784 3.194 0.59787 -1.3589 -0.3408 -0.088411 -0.89385 0.16606 0.40891 -0.3269 0.2077 -0.91964 0.04151 -0.49479 -0.72036 0.62053 0.60304 -0.32795 1.1465 -0.084023 0.072289
games -0.88495 0.77465 0.069162 1.6451 -0.27344 -0.24103 -0.95883 -0.47718 -0.46876 0.38361 0.026774 -0.19447 -1.4064 0.11926 1.3843 -0.79712 -0.13887 0.43211 -1.982 0.067078 -0.61959 -0.27975 0.49575 0.13888 0.043884 -0.7128 0.22836 -0.54725 0.41564 -1.2287 3.28 1.5931 0.10515 -0.41959 0.10851 0.68996 0.91147 0.78022 -0.94922 -0.29333 -0.47833 -0.7881 -0.12952 0.64509 -0.41502 0.98958 -0.096111 0.14893 -0.0078291 -0.031893
european -0.0080185 0.41827 -0.68371 0.01923 -0.33277 0.16856 -0.65487 -0.47132 -0.33454 -0.48188 1.2215 0.043931 -0.60405 0.96154 0.615 0.33789 0.89919 -0.61214 -0.56839 -0.71452 0.39191 -0.58471 -0.6241 0.35325 -0.33529 -1.3378 -0.032167 -0.25649 -1.2263 0.97411 3.4508 0.67662 -0.27501 0.01842 -0.7447 -0.76181 -0.32961 0.53117 -0.85266 -0.67651 0.10604 -0.40192 1.6095 -0.51078 0.26835 0.78402 -0.33166 1.06 -0.045851 -0.90621
added -0.17103 0.21703 0.31748 0.47915 1.1086 -0.06995 -0.57346 -0.47357 -0.48532 -0.052025 0.28045 0.1789 -0.63417 -0.49482 0.45974 0.25677 0.071527 -0.80675 -0.18371 -0.70061 -0.010642 0.3412 0.19267 -0.9593 0.21649 -0.72056 0.6792 0.15118 0.037342 -0.21389 3.2059 0.21156 0.20647 -0.049772 0.31719 -0.39662 0.37759 0.45206 0.31934 0.42096 0.11205 0.39742 0.21851 -0.46591 0.20679 0.016375 -0.36296 0.64138 0.36659 0.41078
without 0.28797 -0.021695 -0.083514 -0.44508 0.23014 0.34773 -0.30783 0.40452 0.11753 0.23837 0.17832 0.33098 -0.5012 0.015954 0.68571 0.27638 -0.0050638 -0.59362 0.089435 -0.65281 0.039652 0.41947 0.26661 -0.20939 0.13286 -1.7116 0.2464 0.18052 1.0859 -0.29591 3.6339 0.49238 -0.57634 -0.62998 -0.0017535 0.36101 0.50483 0.25662 -0.12368 -0.059845 0.12656 0.036029 0.21609 0.68576 -0.38499 -0.14619 -0.25034 0.30878 0.070218 -0.21913
british -0.25236 -0.026505 -0.52338 -0.47625 -0.010816 0.49499 -1.1493 0.22215 0.10172 -1.1891 0.45989 0.34839 -0.15586 0.26532 -0.00068722 0.11876 0.35669 -0.030788 -1.4578 -0.12485 1.1846 0.82477 -0.3904 0.25972 -0.26186 -1.9816 -0.80837 -0.90312 -0.53035 1.4572 2.7247 -0.62139 -0.0461 0.17324 0.36173 -0.18184 -0.081845 -0.59896 -1.0192 -0.75088 0.74903 0.1098 1.0343 -0.67316 0.44687 0.09988 -0.98741 0.058021 -0.13698 -0.39061
white -0.68652 0.80125 -0.6124 -0.1512 0.997 0.81749 -1.2089 -1.0221 -0.94054 -1.2689 -0.68195 -0.12212 0.6122 0.045025 -0.10808 0.12482 -0.17278 -0.45383 -0.37728 -1.4081 -0.42975 0.31746 0.61391 -0.76399 -0.75504 -1.5605 -0.14924 1.2023 0.36776 -0.49137 2.6151 -0.37237 -0.80641 -0.56119 0.028241 -0.20089 -0.36429 -0.51476 -0.23074 -0.72258 -0.086035 0.47341 -0.035288 -0.04892 0.85295 -0.25883 -0.48159 -0.79552 -0.12247 -0.098168
man -0.094386 0.43007 -0.17224 -0.45529 1.6447 0.40335 -0.37263 0.25071 -0.10588 0.10778 -0.10848 0.15181 -0.65396 0.55054 0.59591 -0.46278 0.11847 0.64448 -0.70948 0.23947 -0.82905 1.272 0.033021 0.2935 0.3911 -2.8094 -0.70745 0.4106 0.3894 -0.2913 2.6124 -0.34576 -0.16832 0.25154 0.31216 0.31639 0.12539 -0.012646 0.22297 -0.56585 -0.086264 0.62549 -0.0576 0.29375 0.66005 -0.53115 -0.48233 -0.97925 0.53135 -0.11725
men -0.41714 0.46493 0.13769 -0.19283 1.0112 0.14966 -0.020232 0.37339 -0.37315 -0.89002 0.15083 -0.93411 -0.78542 -0.34753 0.84648 -0.463 0.12469 0.31815 -1.0671 -0.70007 -0.69082 1.0479 0.79692 0.54943 -0.41094 -1.7671 -0.60518 -0.59613 -0.19805 -0.51482 2.6693 0.79256 -0.37652 -0.27977 0.44484 0.28957 0.064096 0.35282 -0.62789 -0.091884 -0.25639 -0.26261 1.0343 0.59887 1.0275 -0.70789 -0.39715 -0.94399 -0.28476 -0.75795
want 0.13627 -0.054478 0.3703 -0.41574 0.60568 -0.42729 -0.50151 0.35923 -0.49154 0.21827 -0.15193 0.52536 -0.24206 0.023875 0.8225 1.089 0.98825 -0.17803 0.77806 -1.0647 -0.28742 0.50458 0.21612 0.65681 0.34295 -2.1084 -0.82557 -0.31966 0.87567 -1.0679 3.3802 1.2084 -1.272 -0.15921 -0.25237 -0.2696 -0.18756 -0.35523 0.084172 -0.56539 -0.24081 0.15926 0.3287 0.54591 0.29897 0.18948 -0.57113 0.17399 -0.19338 0.51921
case 0.70055 -0.24096 -0.3338 0.73864 0.58329 1.0312 0.43613 0.31255 0.45034 0.021358 -0.25161 0.16425 -0.77754 -0.28402 1.3371 0.087065 -0.46043 -0.51812 -0.040278 -0.41397 0.079169 0.11025 0.13596 0.0011033 -0.41198 -2.7956 -0.33211 0.34829 0.037349 -0.23781 2.6114 -1.25 -0.44898 -1.1932 0.29551 -0.54908 0.28867 -0.19626 0.35766 -0.33546 -0.39585 0.49496 0.49102 0.75183 0.16829 -0.058578 -0.053019 0.29408 0.17447 0.15313
few 0.6008 0.18044 0.078339 -0.49145 0.15206 0.070585 -0.99555 0.24069 -0.70344 -0.079897 -0.6171 -0.22407 0.087453 -0.065739 0.61235 -0.0053355 0.10193 -0.24652 -0.31209 -1.0608 0.11929 0.19158 0.73512 0.18325 0.30307 -1.196 -0.67715 0.27333 0.46601 -0.39764 3.7388 0.38117 0.32813 -0.4689 0.39003 0.3538 -0.25716 0.32472 -0.2648 0.011687 -0.42164 0.26935 0.12562 0.71086 0.21745 0.030797 -0.17412 -0.016404 -0.65372 -0.38255
run -0.39488 -0.16448 0.5962 0.65815 -0.16846 -0.15133 -1.4758 0.30485 0.21424 0.14186 -0.61187 -0.30795 -0.95699 0.5091 0.044055 -0.45553 0.2935 -0.13392 -0.5435 0.15159 0.029202 -0.18742 -0.063712 0.13006 0.21263 -1.6852 0.49537 -0.3251 0.58808 -0.41512 3.3893 0.48489 -0.30358 0.64958 -0.12071 0.02473 0.041069 0.68037 0.11627 0.19554 -0.49145 -0.051832 -0.73035 0.58392 -0.48736 0.064017 -0.41403 -0.25202 0.18886 0.010374
open -0.062761 0.81904 -0.067769 1.0728 -0.48884 -0.53659 -0.39512 0.29684 -0.24994 -0.64616 -0.38994 -1.0181 -0.74659 0.5638 0.62756 0.84303 0.1374 -0.54534 -0.16795 -0.43048 0.18814 0.16537 -0.1674 0.59948 -0.16904 -1.1376 0.36256 0.19763 0.010075 -0.3838 3.5756 0.045535 -0.52057 0.32947 -0.36942 -0.37348 0.31756 0.81132 -0.044679 -0.79792 0.22949 -0.73993 0.90041 0.46883 0.4512 0.6644 0.24931 -0.88062 -0.042584 -0.21827
name 0.20957 0.75197 -0.48559 0.1302 0.60071 0.43273 -0.95424 -0.19335 -0.66756 -0.25893 0.66367 1.0509 0.10627 -0.75438 0.45617 0.37878 -0.40237 0.1821 -0.028768 0.24349 -0.35723 -0.55817 0.14103 0.58807 0.076804 -1.972 -1.4459 0.081884 -0.29207 -0.65623 2.718 -0.96886 -0.33354 -0.19526 0.33918 -0.24307 0.29058 -0.37178 -0.38133 -0.20901 0.48504 0.20702 -0.5754 -0.32403 -0.19267 -0.043298 -0.57702 -0.4727 0.42171 -0.14112
